0.0136829 0.0544628 -0.0884246 -0.0214977 0.139356 -0.361099 0.117627 0.263473 0.0787922 0.229811 0.179247 -0.256219 0.105059 -0.0311085 -0.382659 -0.219867 0.241135 0.284558 -0.304304 0.0917531 0.0527974 0.262796 -0.00894305 -0.220717 -0.269885 0.184854 -0.253964 0.22005 -0.286588 0.0681178 0.279208 0.106075 
-0.245931 0.235125 -0.177382 0.267 -0.209174 -0.266289 0.0250111 0.0227966 -0.149948 -0.153166 0.120525 -0.332919 -0.119391 -0.27779 -0.365964 0.104001 0.0508791 -0.0117354 0.19618 0.333495 -0.097617 -0.18288 0.0683036 0.138597 -0.306504 -0.0820108 -0.0597309 0.192508 -0.0695553 0.150084 0.349436 -0.0768514 
-0.0608353 0.226569 -0.130282 -0.299684 -0.339481 -0.05538 -0.0498505 -0.102575 -0.263503 0.324308 -0.0989376 -0.354246 -0.193274 -0.359669 0.185476 0.0963676 -0.339597 0.282844 0.106441 0.203062 0.139465 0.0429385 0.0669922 0.108471 -0.228128 -0.239697 -0.0386626 -0.140449 -0.264125 0.067758 -0.0671024 0.398473 
0.853634 0.606241 1.26746 0.262611 0.286137 1.04187 -0.555689 -1.06784 0.964157 0.700724 -0.441195 0.756607 0.705844 0.666975 1.05565 0.244947 -0.6064 1.05509 0.412981 0.916909 0.544396 -0.493439 0.0572331 -1.13199 -0.0269165 0.823003 -0.780059 -1.30697 0.703383 0.584374 -0.602106 -0.951279 
0.796639 0.430664 1.10895 0.355883 0.586502 1.08542 -0.486333 -0.894872 0.782569 0.559671 -0.475988 0.534125 0.85555 0.320277 0.807964 0.232022 -0.759697 0.648347 0.741099 0.756895 0.806587 0.383686 0.198182 -1.071 0.685041 0.543104 -0.935197 -0.667581 1.07634 0.317115 -0.733689 -0.786772 
0.763248 1.05047 0.672088 0.269013 0.445701 0.865905 -0.744531 -0.271952 0.258056 0.838002 -0.494576 0.522357 0.706327 0.15922 1.03143 0.294189 -0.632417 0.838521 0.009521 0.524747 0.14932 -0.184681 -0.286014 -1.16526 -0.19692 0.410012 -0.789792 -1.09764 1.07892 -0.0829558 -0.224988 -0.824193 
0.487948 0.519787 1.23434 1.4106 1.2612 0.718194 -0.469293 -0.731482 1.13661 0.755309 -1.35811 1.03234 0.328801 0.645978 0.78824 -0.435142 -0.269487 0.601896 0.838062 0.913684 0.823443 0.39066 0.736624 -1.27602 0.957416 1.31382 -0.979208 -0.839985 0.766397 0.526115 -0.869423 -0.824412 
0.965183 0.685767 0.911914 0.508311 0.583232 0.872837 -0.826469 -0.690097 0.895287 0.750847 -0.681418 0.506906 1.15828 0.675116 0.950159 0.0359481 -0.622587 0.768165 0.226702 0.797819 0.877413 -0.374055 0.207162 -0.822599 0.247388 0.827817 -0.479235 -1.10074 0.899861 0.0600951 -0.781948 -0.887599 
0.67321 0.748063 0.740908 0.297215 0.399122 0.968529 -0.631106 -0.903965 0.785987 0.788436 -0.454904 0.572314 1.10126 0.320783 0.768694 0.380507 -0.78745 1.01424 0.0818351 0.918489 0.373369 -0.364642 0.301309 -0.674783 0.413196 0.818062 -0.99333 -0.673478 1.29902 0.608442 -0.715697 -0.775516 
0.160861 0.191653 -0.0397564 0.159263 0.220575 0.0831075 0.076868 0.293744 -0.0505916 0.0664111 0.186914 -0.336709 -0.285025 0.0164694 -0.266003 -0.196676 -0.327355 -0.319875 0.28371 -0.169769 0.25162 -0.383237 0.178473 0.218725 0.232675 0.311658 -0.143669 -0.106972 0.188778 -0.187459 -0.219428 -0.264603 
0.245152 0.239876 0.203165 -0.181566 0.0906227 -0.275081 0.356768 -0.0571388 -0.0414607 0.00287816 0.0459834 -0.300234 -0.11121 0.0784703 -0.362009 0.196581 -0.0547934 0.0677491 0.0184509 -0.017782 -0.212154 0.215373 0.0729634 0.0614215 -0.234537 -0.330973 0.196538 -0.0742711 0.213728 -0.116354 0.232236 0.34238 
-0.325686 0.0737807 -0.0276764 -0.0455786 -0.279655 -0.0369557 -0.176395 0.313808 -0.193873 -0.173326 0.312294 0.248119 0.249651 -0.0560586 -0.0267595 -0.366507 0.262205 0.118424 -0.215214 -0.157152 0.18483 0.142469 -0.0567817 -0.123614 -0.0983646 -0.144972 -0.182369 0.206753 0.022057 0.134126 -0.207803 0.177119 
-0.568885 -1.06342 -1.34781 0.97621 1.48741 0.631366 -1.19311 -0.582371 0.377125 -1.61404 -1.25771 1.30446 -1.30987 0.302463 -0.550675 0.741159 1.24287 -1.22174 1.30089 -1.64228 0.176386 1.47284 1.36703 1.70536 1.59917 1.10675 0.479849 1.81633 -1.53759 1.3078 -1.33631 0.0173699 
1.67981 1.44571 -0.705295 -1.74249 -1.38947 -1.24754 0.960836 1.32664 -0.761328 0.82012 1.24522 -1.03257 1.55951 -1.52162 0.785985 1.1738 -1.4817 1.45377 -1.15217 0.609119 -1.13598 -1.18436 -1.17525 -0.743659 -0.58743 -1.57849 1.90507 -0.518133 1.45634 -0.789456 1.33046 1.19026 
0.417347 0.364602 0.03315 -0.829341 -0.317194 -0.130088 0.244601 0.599313 -0.523455 0.0864508 0.52001 -0.501504 0.525315 -0.122547 0.124407 0.465112 -0.706302 0.552494 -0.565621 0.147476 -0.725764 -0.614936 -0.638445 -0.202454 -0.654051 -0.836999 0.33676 -0.161761 0.52254 -0.478277 0.49818 0.63493 
0.261756 -0.316837 -0.118304 0.185945 -0.12356 -0.118071 0.279388 -0.0345625 -0.392883 -0.0908256 -0.160996 -0.329273 -0.0167053 0.198256 -0.273338 -0.121487 0.231723 -0.278467 -0.254229 -0.107375 -0.256935 0.236028 -0.282896 -0.294025 -0.258212 -0.0439893 0.227509 0.0234439 0.281062 -0.133593 0.258241 0.00552988 
-0.0636777 -0.25874 0.120429 0.0268956 0.00786144 -0.0322038 0.104426 0.129819 -0.288855 0.0554926 -0.103277 0.105407 0.255646 -0.134886 -0.083177 -0.165042 0.110572 0.00201805 -0.228007 0.186176 0.228631 0.129156 -0.357286 0.170562 -0.0446911 -0.215953 -0.238415 -0.370462 0.102575 0.0241014 0.329029 0.175542 
0.0322959 -0.00743652 0.110943 -0.201665 -0.310702 0.135884 0.231349 0.255038 -0.414801 0.312365 0.118523 0.304313 -0.128363 0.100453 -0.0980288 -0.158451 -0.362292 -0.150359 -0.341972 -0.1753 0.125826 0.0358967 -0.203102 0.0108816 0.1841 0.0412754 -0.350846 -0.16896 0.130288 -0.391367 0.35062 -0.0491794 
-0.394928 -0.231189 0.0148444 0.0258756 -0.182536 -0.418407 0.205036 0.196775 -0.225964 0.0436928 0.0467014 -0.0838369 0.272714 0.270111 -0.0180022 -0.405547 0.124893 0.0273955 0.239089 0.113504 -0.258592 -0.133535 0.138206 -0.0713611 0.170104 -0.18106 -0.166841 -0.249204 0.0952015 0.115097 0.254743 -0.00450611 
-0.210705 -0.199095 -0.156716 0.100517 0.288313 0.0541563 0.133374 -0.040822 0.140867 -0.147195 -0.057834 0.00691063 -0.0841075 -0.142436 -0.0142298 -0.0743876 0.0666314 0.181798 -0.113331 -0.146588 -0.316559 -0.0990381 0.14488 0.0481448 0.319173 -0.258233 -0.0183491 0.328925 0.116661 0.0567927 -0.198206 -0.223699 
0.133042 0.179852 0.349618 0.117521 -0.124971 -0.389214 0.0877538 -0.0662302 0.0408967 -0.24143 -0.0493482 0.315458 -0.230439 -0.203508 0.0882425 -0.17095 0.28134 -0.117771 0.053533 -0.232336 -0.0769744 -0.249699 0.165644 -0.127736 -0.0439614 0.229645 -0.176574 -0.123889 -0.312647 -0.253258 0.146795 -0.291078 
0.118872 -0.293984 0.292458 0.161879 -0.276715 -0.349546 0.126797 0.206522 -0.108031 0.354937 -0.00794663 0.0577327 -0.226917 0.0106837 0.112525 -0.0392579 0.0611453 0.0473153 0.172897 0.154716 0.0292365 -0.0933114 0.179839 -0.170853 -0.17913 0.108566 0.274796 -0.214867 -0.273639 0.195805 -0.0849717 0.0042949 
-0.147517 -0.0266496 0.30741 -0.32149 -0.029581 0.0657863 -0.114856 -0.153666 -0.100589 0.0648441 0.0930183 0.101858 0.309118 -0.186602 -0.157887 -0.314143 0.212533 0.152716 -0.111922 0.0917758 0.00601646 -0.0247842 -0.195488 0.0409724 0.254406 0.0129671 -0.23174 -0.184733 0.140393 -0.351114 -0.0405981 -0.00147609 
-0.308366 0.178965 0.24284 -0.0657558 -0.255152 -0.0971611 0.261532 -0.103075 0.00321973 -0.0533944 0.322628 -0.139376 0.0927341 0.158177 -0.0794685 -0.0210641 -0.245516 -0.287594 -0.22174 0.183579 0.188474 -0.106386 -0.195221 0.0427046 -0.294114 -0.312912 0.0674975 0.190243 0.18799 0.0813889 -0.143653 0.0518843 
