#include <math.h>
#include "hls_stream.h"
#include <hls_math.h>
#include "ap_int.h"

#define NUMBER_OF_INPUT_WORDS 35  // length of an input vector
#define NUMBER_OF_OUTPUT_WORDS 4  // length of an output vector

struct AXIS_wLAST{
	float data;
	bool last;
};

typedef float data_t;
typedef float weight_t;

const int N_INPUTS = 35;
const int N_HIDDEN_1 = 50;
const int N_HIDDEN_2 = 50;
const int N_OUTPUTS = 4;

const weight_t W1[N_INPUTS * N_HIDDEN_1] = {
    0.15020133554935455,-0.13772495090961456,0.09161826223134995,-0.1103372573852539,0.19787490367889404,-0.23989826440811157,-0.033219724893569946,-0.1714819222688675,0.1032014936208725,0.29393109679222107,0.1826523095369339,-0.12343225628137589,-0.024683505296707153,-0.1766178458929062,0.27720749378204346,0.1360476315021515,-0.17110790312290192,0.06049616262316704,-0.15872158110141754,0.33153218030929565,0.05087020993232727,0.1675899773836136,0.30299243330955505,-0.10615307837724686,0.15306079387664795,0.306571900844574,-0.24256421625614166,-0.15827485918998718,-0.021738769486546516,0.030547525733709335,0.1224605068564415,-0.0648653581738472,0.2796913981437683,0.06671066582202911,-0.23490917682647705,0.15673759579658508,0.011382811702787876,-0.083457350730896,-0.08299171179533005,-0.011427300982177258,0.3058013617992401,-0.09809576719999313,0.13106600940227509,-0.07614243775606155,0.12464646995067596,0.16088610887527466,-0.2972465753555298,-0.0058446419425308704,0.03612609952688217,0.1633918732404709,-0.04015076905488968,0.09299921244382858,0.09841378033161163,0.018608612939715385,0.06577093154191971,0.15222427248954773,0.036551814526319504,-0.25047567486763,0.25291600823402405,0.25316283106803894,-0.09759781509637833,-0.07680988311767578,-0.059694867581129074,-0.04958837106823921,0.22545768320560455,-0.1163754090666771,-0.20853731036186218,0.23066888749599457,0.056025128811597824,0.031705453991889954,0.16773147881031036,-0.10498438775539398,-0.14317205548286438,0.11915525048971176,0.310127854347229,0.012106291018426418,0.2013954073190689,-0.27285346388816833,0.10298076272010803,-0.06761510670185089,0.1977725327014923,0.004284294322133064,-0.15202853083610535,0.2876429557800293,0.16969723999500275,-0.227449432015419,0.27685433626174927,0.3041324019432068,-0.113592229783535,-0.013647954910993576,0.13212689757347107,0.011117401532828808,0.05672634020447731,0.03932887688279152,0.31837862730026245,-0.1483909785747528,-0.23258289694786072,-0.1213834285736084,-0.3302434980869293,-0.17900291085243225,0.24814778566360474,-0.18586404621601105,-0.12061043828725815,-0.08371289074420929,-0.045407310128211975,0.009437177330255508,0.17884857952594757,-0.1784287840127945,-0.04041776433587074,0.022066114470362663,0.22001656889915466,0.050192926079034805,-0.26019710302352905,0.037729062139987946,0.06242024898529053,-0.19299691915512085,-0.2239292562007904,0.0922560766339302,0.21032515168190002,0.09144636243581772,0.008435816504061222,0.0017837800551205873,0.18216289579868317,0.08494728058576584,-0.09885434061288834,-0.17730411887168884,0.15254543721675873,-0.032957859337329865,0.26353758573532104,-0.13055936992168427,0.19861795008182526,-0.03593182936310768,0.17213870584964752,0.08184877783060074,-0.0569746196269989,0.25504884123802185,0.1818644255399704,0.21970762312412262,-0.19714981317520142,0.2043173909187317,-0.11973217874765396,0.2373250126838684,-0.24949344992637634,0.03217761218547821,0.1527920961380005,0.16987007856369019,0.04164048284292221,0.107693150639534,-0.08719521760940552,0.03155442327260971,0.0583530068397522,-0.320724219083786,0.22269216179847717,0.15377627313137054,0.17594999074935913,-0.17335473001003265,-0.22650855779647827,0.16624943912029266,0.08885294944047928,0.13880997896194458,-0.2093246877193451,-0.2416500747203827,0.23451805114746094,-0.12545792758464813,0.10797306895256042,-0.2061566263437271,0.17745007574558258,-0.023176299408078194,0.30378463864326477,-0.04814661666750908,0.1913345605134964,0.07079609483480453,0.16804330050945282,0.12801000475883484,0.05690056458115578,0.1217532828450203,0.2816053628921509,0.03482813388109207,0.058347269892692566,0.08128013461828232,0.014265704900026321,0.16371050477027893,0.23978471755981445,0.09013087302446365,0.29079338908195496,-0.14034490287303925,-0.13954715430736542,-0.11284749954938889,0.20222695171833038,-0.12724441289901733,0.02546042948961258,0.16322486102581024,-0.15739181637763977,-0.33173733949661255,-0.03246932476758957,0.04612287878990173,0.009928293526172638,0.17081952095031738,0.1543148010969162,-0.1784249097108841,-0.23785947263240814,0.16509325802326202,-0.2264491617679596,0.19456671178340912,0.028228258714079857,0.10889274626970291,-0.14053159952163696,0.12207839637994766,-0.2047206163406372,-0.17184549570083618,0.2310827672481537,-0.11931394040584564,-0.22596392035484314,-0.1437438428401947,-0.1297125518321991,-0.029187234118580818,-0.19531160593032837,-0.03394737094640732,-0.05540189892053604,0.2630627453327179,0.3067072033882141,0.24420110881328583,0.10552923381328583,0.039268020540475845,-0.24673035740852356,-0.22985388338565826,-0.20246674120426178,0.08074294775724411,-0.07240843772888184,-0.1746307611465454,0.12194189429283142,0.08901219815015793,0.02374991960823536,-0.13768817484378815,-0.037400733679533005,-0.11257503181695938,-0.1852506548166275,-0.09909569472074509,-0.17669129371643066,-0.3062197268009186,-0.040046751499176025,-0.1403510421514511,-0.028661465272307396,-0.29783889651298523,-0.01721007004380226,-0.09624417126178741,0.07241680473089218,0.1900973916053772,0.11110708862543106,-0.06557472050189972,-0.136698916554451,0.10013160854578018,0.026148250326514244,-0.16371335089206696,-0.023759156465530396,-0.032320212572813034,-0.08895464241504669,-0.12694761157035828,0.1820422261953354,-0.06709660589694977,0.036015819758176804,0.17825117707252502,0.07379262149333954,-0.11257077008485794,-0.1454533189535141,-0.0013510778080672026,0.03773020952939987,0.03594754636287689,-0.0716366320848465,-0.1846100091934204,0.2187589854001999,0.12321566790342331,0.024644529446959496,0.20541222393512726,0.040073130279779434,0.008111240342259407,0.09177789092063904,0.1812831610441208,-0.1770613044500351,0.036202456802129745,0.038463350385427475,-0.200372576713562,0.1529896855354309,-0.002070449758321047,-0.1949617862701416,-0.22626830637454987,-0.0790628120303154,0.2643497586250305,-0.11320357024669647,-0.12673884630203247,-0.061657704412937164,-0.25126609206199646,-0.18306230008602142,-0.07325854152441025,-0.2232440859079361,-0.15094693005084991,0.042055342346429825,-0.11081616580486298,-0.22199858725070953,0.098073810338974,-0.044006336480379105,-0.1554621011018753,0.17934642732143402,0.13698039948940277,-0.035481132566928864,0.12878769636154175,0.021355770528316498,-0.1697312444448471,-0.07432496547698975,-0.1714278757572174,0.12213224172592163,0.0997890755534172,-0.07759056240320206,-0.28001466393470764,0.23334400355815887,-0.11654222756624222,-0.139733225107193,-0.10132479667663574,0.2579094171524048,-0.1956724375486374,-0.17354033887386322,0.23867903649806976,0.09593476355075836,0.2186133712530136,0.10619639605283737,-0.1752621978521347,-0.04368003085255623,-0.13111169636249542,0.02132413163781166,-0.05580364540219307,-0.22354179620742798,-0.1031556949019432,-0.16078872978687286,-0.04105381667613983,-0.2287149876356125,-0.1638406366109848,-0.23409204185009003,-0.10014278441667557,0.249783456325531,-0.03165223076939583,0.040886543691158295,-0.20613838732242584,0.0768909901380539,-0.07563432306051254,0.267210453748703,0.1875302493572235,0.09105295687913895,0.2178170531988144,0.18831969797611237,0.22025544941425323,-0.07150325924158096,0.11347751319408417,0.20342746376991272,0.1963435709476471,-0.0329660139977932,-0.04931379482150078,0.013508380390703678,0.0032983520068228245,-0.2417200803756714,-0.057112328708171844,-0.16935580968856812,0.0027139815501868725,0.24445968866348267,-0.09231162816286087,0.20547454059123993,0.1092081367969513,0.04078852757811546,-0.12852495908737183,-0.14403192698955536,0.1304180920124054,-0.08808942884206772,-0.01814277097582817,-0.1798481047153473,-0.12356241792440414,0.005410350859165192,-0.20707353949546814,0.17616499960422516,-0.11087099462747574,0.04407644644379616,-0.012803140096366405,-0.02665438875555992,-0.05225316435098648,0.08687208592891693,-0.029980571940541267,0.01095607876777649,-0.22449778020381927,-0.04867508262395859,0.23597310483455658,-0.17682228982448578,0.11875841021537781,-0.21425867080688477,0.03219631686806679,0.19193808734416962,0.1648121029138565,-0.13747245073318481,0.22533971071243286,-0.028477104380726814,-0.023344267159700394,-0.08156625181436539,0.17911580204963684,-0.10772104561328888,-0.20601491630077362,0.2625724971294403,0.2328135371208191,0.03967874497175217,-0.12386664003133774,-0.0470803864300251,-0.06487869471311569,-0.1876242607831955,-0.04869524762034416,0.16071130335330963,-0.11316165328025818,0.14829371869564056,0.12166478484869003,0.21242251992225647,0.138942152261734,-0.24564635753631592,-0.19035066664218903,0.1303168386220932,0.0318269282579422,0.10169773548841476,-0.1430703103542328,0.06911088526248932,-0.1410568505525589,0.2328106164932251,-0.07358546555042267,-0.03065011277794838,-0.10757917165756226,-0.0021256646141409874,0.05281567946076393,0.10057597607374191,0.13670721650123596,-0.22258809208869934,0.10910291969776154,-0.11870143562555313,0.030140958726406097,0.08088140189647675,0.07713339477777481,0.06872154772281647,-0.03145582228899002,-0.13538390398025513,-0.03126779943704605,0.21754084527492523,0.13731913268566132,0.13253146409988403,-0.00011596023250604048,0.09704434126615524,-0.162582129240036,0.033402543514966965,-0.018706224858760834,-0.1715351939201355,0.16284190118312836,-0.23655866086483002,0.08961120992898941,0.0008446674910373986,-0.13795144855976105,-0.12407948076725006,0.11679494380950928,0.0598585307598114,0.1960529386997223,-0.04971145838499069,0.09041082113981247,0.13720902800559998,-0.013734260573983192,0.16946470737457275,-0.146955668926239,-0.009443490765988827,-0.19954711198806763,-0.0207817442715168,0.1665603667497635,0.18015533685684204,0.1652306765317917,0.14165030419826508,-0.067891426384449,-0.006549407262355089,0.17402859032154083,-0.11810419708490372,0.24224843084812164,-0.07675129920244217,0.26700150966644287,-0.10051600635051727,0.04263659194111824,0.10568321496248245,0.11916542798280716,0.16240538656711578,-0.048020098358392715,0.0736863985657692,-0.21901153028011322,-0.07500611990690231,-0.13858391344547272,-0.13113243877887726,-0.05411064997315407,0.02307671494781971,0.21949154138565063,0.20501969754695892,0.04865916073322296,-0.24776792526245117,0.26169660687446594,0.0064126476645469666,-0.11407586932182312,-0.2153591364622116,0.19496037065982819,-0.14818216860294342,-0.00641906401142478,0.13618645071983337,-0.11755869537591934,0.003101303242146969,0.09906710684299469,0.1862858533859253,0.11627708375453949,-0.22200696170330048,0.005624987185001373,0.1630832552909851,0.0007885676459409297,0.04818570241332054,0.18706099689006805,0.15031449496746063,-0.1166754886507988,-0.0014831793960183859,0.05090271309018135,-0.11013446748256683,0.03973175212740898,-0.21386520564556122,-0.09991978108882904,-0.20628240704536438,0.023960618302226067,-0.014990488067269325,-0.014652367681264877,-0.20440571010112762,-0.020363420248031616,-0.09152592718601227,0.17915093898773193,0.12212596833705902,-0.2207639068365097,0.11213482171297073,0.22643548250198364,0.2269597351551056,0.11732600629329681,-0.15035562217235565,-0.2488347440958023,0.19256752729415894,0.09814455360174179,0.12470609694719315,0.01401427574455738,-0.17263007164001465,-0.1642005294561386,0.17146819829940796,0.23414117097854614,-0.09444626420736313,-0.060735806822776794,-0.013483843766152859,-0.19675973057746887,0.14114885032176971,-0.2389587014913559,-0.15921932458877563,-0.04637187346816063,-0.08166158199310303,0.15680667757987976,-0.0574188157916069,-0.05087363347411156,0.22223274409770966,0.11031749844551086,-0.06359156966209412,0.09889347851276398,0.028486713767051697,0.08885342627763748,-0.08094276487827301,-0.19166016578674316,-0.09522750228643417,0.06992807239294052,-0.23337621986865997,-0.08465618640184402,-0.13112227618694305,0.04858996719121933,-0.230544775724411,0.17631323635578156,-0.1667351871728897,0.17255350947380066,-0.03204428032040596,0.20334568619728088,0.12944595515727997,0.17233482003211975,-0.032545123249292374,0.190008282661438,-0.09233955293893814,-0.17605943977832794,0.1660718023777008,0.14609280228614807,0.23107703030109406,0.16092811524868011,-0.2370939999818802,0.21171700954437256,0.04407982528209686,0.09382328391075134,-0.09565864503383636,-0.0018049596110358834,-0.09630964696407318,0.16003787517547607,-0.018865639343857765,0.1523009091615677,-0.10420706123113632,0.14250339567661285,0.12922485172748566,0.03399849310517311,-0.15735550224781036,-0.018375059589743614,0.22747796773910522,0.13123254477977753,0.11117824912071228,0.059091195464134216,-0.26027700304985046,0.2163725644350052,-0.21689482033252716,-0.10815653949975967,0.022248240187764168,0.28359803557395935,-0.03661930561065674,0.13996757566928864,-0.15040576457977295,-0.1181904748082161,0.05008323863148689,0.160138338804245,0.03022780828177929,-0.17399248480796814,0.16599833965301514,-0.21074852347373962,-0.049322355538606644,0.2339911311864853,0.22949804365634918,0.19170622527599335,0.02514178678393364,0.08463756740093231,0.11257192492485046,0.03307892754673958,-0.2002994567155838,0.03774072602391243,-0.13948777318000793,-0.22831636667251587,0.08707643300294876,-0.019692953675985336,-0.1080491691827774,0.11578311771154404,-0.13355128467082977,-0.11996398121118546,0.004791243001818657,0.18496796488761902,-0.09716238081455231,0.27081209421157837,0.066590815782547,0.16374652087688446,0.04930971935391426,0.13574090600013733,-0.25657176971435547,-0.2338847517967224,-0.013336854055523872,-0.01740807481110096,-0.19695989787578583,0.27264758944511414,0.17009270191192627,0.1010107472538948,-0.18997162580490112,0.14567822217941284,0.13641372323036194,0.2005310207605362,0.015166431665420532,-0.20651531219482422,0.15633930265903473,0.0967397466301918,-0.2650921046733856,0.21666716039180756,-0.2040654867887497,-0.2520667016506195,-0.027568021789193153,0.19395919144153595,-0.010774575173854828,0.24817250669002533,-0.02703990787267685,-0.04832242429256439,0.20319560170173645,0.17850513756275177,0.0012561783660203218,0.03004407323896885,0.053650740534067154,0.24627502262592316,0.13499973714351654,0.20527960360050201,0.12517492473125458,-0.14802084863185883,0.029862651601433754,-0.1515296995639801,-0.019410153850913048,-0.0886441022157669,-0.16810667514801025,0.08083343505859375,-0.2520205080509186,-0.24833638966083527,0.21115030348300934,0.26846185326576233,-0.23516085743904114,0.18491587042808533,0.033339984714984894,0.07309380918741226,-0.27014029026031494,0.20446154475212097,0.049751970916986465,0.23829615116119385,0.1497550755739212,-0.19615517556667328,-0.11551999300718307,-0.05088053643703461,-0.03685583546757698,0.01300519984215498,0.1188536137342453,0.010827058926224709,0.23246756196022034,0.24252524971961975,0.019194718450307846,-0.21270892024040222,0.09495095908641815,-0.22926092147827148,-0.08692450821399689,-0.06447330862283707,0.025480372831225395,-0.1357172578573227,0.22364355623722076,-0.07981488853693008,-0.0683644637465477,-0.12439640611410141,-0.13199886679649353,0.1362297087907791,0.21579651534557343,0.21648360788822174,0.24342630803585052,0.01782122068107128,0.04997977986931801,-0.08354935795068741,-0.16503603756427765,0.009466619230806828,-0.16230010986328125,0.04652870073914528,-0.13879120349884033,-0.00414752634242177,0.24134787917137146,0.23822490870952606,-0.05848639830946922,0.28917452692985535,0.16424736380577087,-0.1742270588874817,0.038926173001527786,0.05269395187497139,-0.25858011841773987,-0.15587520599365234,-0.19000840187072754,0.1724906712770462,-0.08800852298736572,0.05673522502183914,-0.16424524784088135,0.23635676503181458,0.1584770232439041,0.15000249445438385,0.05697125568985939,0.05695750191807747,0.01175685040652752,-0.1279865950345993,-0.09536087512969971,-0.09630675613880157,0.2515895664691925,0.268184095621109,0.03242374211549759,0.11745312064886093,0.08553695678710938,0.24761633574962616,0.2192554771900177,0.2571980953216553,-0.12335746735334396,0.051568031311035156,-0.2702162563800812,0.11184681206941605,0.1734483242034912,0.01799904927611351,0.1356406807899475,0.15779559314250946,0.06535178422927856,-0.204688161611557,0.25151655077934265,-0.12510301172733307,0.1397218555212021,0.2490047663450241,-0.19481110572814941,0.0011219820007681847,-0.05017760768532753,0.08258853852748871,0.24874506890773773,0.0797998309135437,0.18624788522720337,-0.09981902688741684,0.057015661150217056,0.05727522075176239,-0.19981566071510315,-0.17874404788017273,-0.09848271310329437,0.04622356593608856,-0.18033531308174133,0.08699851483106613,0.1331055909395218,-0.07031861692667007,0.1225244551897049,-0.2295076698064804,-0.058837197721004486,-0.014872429892420769,0.025073502212762833,0.18414732813835144,-0.1690453737974167,-0.0032658837735652924,0.09729333221912384,0.19348157942295074,0.050349101424217224,0.21146148443222046,-0.16092221438884735,-0.20653264224529266,-0.012160993181169033,-0.04732917249202728,0.0894901305437088,-0.11619889736175537,-0.05012248829007149,-0.11696859449148178,-0.12534764409065247,0.09655318409204483,-0.08872444182634354,-0.21674415469169617,-0.2587718069553375,0.18612176179885864,-0.09259016066789627,-0.27115505933761597,0.09080148488283157,-0.0893523171544075,0.1936446577310562,-0.20208096504211426,0.0551781989634037,-0.08769194036722183,0.12437471747398376,-0.20775313675403595,-0.17601236701011658,-0.12380305677652359,0.0289301797747612,-0.21351008117198944,-0.1427229642868042,-0.16896499693393707,-0.023006292060017586,0.22245807945728302,0.20254766941070557,-0.09693517535924911,0.28747498989105225,0.25597694516181946,-0.12981678545475006,-0.056721944361925125,0.08425982296466827,0.13644199073314667,0.27009379863739014,0.006727235391736031,0.06049925461411476,0.13143599033355713,-0.026773156598210335,0.15392965078353882,-0.057510826736688614,-0.0763174518942833,0.02509913593530655,-0.12355989962816238,-0.052271921187639236,0.009652887471020222,-0.1477038413286209,-0.21608412265777588,-0.031043870374560356,0.21460239589214325,-0.1682228446006775,-0.13486778736114502,-0.008792130276560783,-0.14004549384117126,-0.2248457819223404,0.10586293786764145,0.19691704213619232,0.04044037312269211,0.1932874470949173,-0.07927766442298889,0.09019365906715393,0.205415740609169,-0.176162987947464,-0.1567431390285492,-0.23214881122112274,-0.06524825841188431,-0.20888809859752655,-0.16682828962802887,-0.04457097873091698,0.06562542170286179,-0.19487574696540833,-0.014347240328788757,-0.2147502452135086,-0.1693669557571411,0.00976764690130949,-0.12361910194158554,-0.10138849169015884,-0.1253816783428192,0.24980001151561737,0.008430559188127518,0.26034262776374817,0.2111574411392212,0.139256089925766,0.18535728752613068,0.20058412849903107,0.25345197319984436,-0.143302783370018,-0.030886853113770485,-0.06267878413200378,-0.17443108558654785,0.15159249305725098,-0.22717894613742828,0.11918208748102188,-0.19101744890213013,0.061110708862543106,0.1370236724615097,0.060439713299274445,0.09004780650138855,0.023544566705822945,-0.0267673060297966,-0.06588537991046906,-0.1429370641708374,0.24775147438049316,-0.027255604043602943,-0.21376235783100128,-0.1430438607931137,-0.08655799180269241,-0.2757110297679901,-0.23904909193515778,0.0985831618309021,-0.21022450923919678,-0.06157972291111946,0.01055184006690979,0.004924784414470196,0.0652221217751503,-0.14098089933395386,-0.07625969499349594,0.0015359531389549375,-0.1575002670288086,-0.0033420210238546133,0.2043491154909134,0.09264511615037918,0.07168084383010864,0.26244351267814636,-0.2114035189151764,-0.05673728138208389,0.14258359372615814,0.09024199098348618,-0.12088584154844284,-0.020220760256052017,-0.1315203607082367,-0.1976526528596878,0.044173695147037506,0.08616089820861816,0.1759699285030365,0.062096331268548965,0.2106531262397766,-0.07898598164319992,-0.0016197838122025132,-0.19815629720687866,0.017836138606071472,0.18203599750995636,-0.030784204602241516,0.11080091446638107,0.017980653792619705,0.07724656909704208,-0.20045240223407745,0.09236424416303635,0.036644190549850464,0.08394139260053635,0.05865445360541344,0.12548185884952545,-0.28685757517814636,-0.22774304449558258,-0.15011252462863922,0.20118898153305054,0.14148402214050293,0.20636694133281708,0.01937997154891491,0.12363394349813461,-0.03657631203532219,-0.2099948227405548,-0.16175886988639832,0.10608380287885666,0.01747284270823002,0.16082577407360077,0.09777601808309555,0.15743455290794373,0.21167249977588654,-0.03344098851084709,-0.13030099868774414,-0.05398637801408768,0.21599796414375305,0.07473466545343399,0.14130085706710815,-0.27642130851745605,-0.05944044888019562,0.0660577043890953,-0.01208785641938448,0.1071849912405014,-0.08200281113386154,-0.1917092502117157,-0.11374878138303757,0.08941613882780075,-0.22545529901981354,-0.2015092819929123,0.27938634157180786,0.1990315169095993,0.17217959463596344,0.21884982287883759,-0.02839677222073078,-0.02669159322977066,0.25443699955940247,0.2017877846956253,-0.1313011348247528,0.2789323031902313,-0.1987724006175995,-0.22206099331378937,0.0825631245970726,-0.1416764259338379,0.11423945426940918,0.1465761810541153,0.25116875767707825,-0.13509048521518707,0.04491543024778366,-0.1274048537015915,-0.16590170562267303,0.057690657675266266,0.20278656482696533,-0.08676894009113312,0.025830524042248726,-0.2360212802886963,0.1288665533065796,0.16464385390281677,-0.19735050201416016,0.1310175359249115,0.055642519146203995,0.12779393792152405,-0.2585161030292511,-0.2316286265850067,-0.0297640822827816,-0.2315666526556015,0.07484231889247894,0.20506015419960022,0.13381202518939972,-0.15329474210739136,-0.061940088868141174,-0.15084120631217957,0.15838147699832916,0.2642948627471924,0.16222551465034485,0.19603188335895538,-0.13278882205486298,0.10729038715362549,-0.24232658743858337,0.23403021693229675,-0.2152591347694397,0.004991219379007816,0.1607581526041031,-0.25728458166122437,-0.013767249882221222,0.17771099507808685,-0.08102107048034668,-0.08398007601499557,-0.20105594396591187,0.12269380688667297,0.2609163820743561,-0.07998161762952805,-0.227920800447464,-0.18932616710662842,-0.1545453667640686,0.10834852606058121,0.2542193830013275,0.23930007219314575,-0.08033371716737747,0.045845337212085724,-0.050041068345308304,0.018972525373101234,-0.19584307074546814,-0.23457641899585724,0.07140427082777023,-0.22277000546455383,0.24000445008277893,-0.01675991900265217,-0.08584889024496078,-0.09832930564880371,-0.023754514753818512,-0.08641532808542252,-0.19227644801139832,-0.05147845670580864,-0.23243571817874908,0.14682839810848236,-0.08837492018938065,-0.09051365405321121,0.004887120332568884,0.23335546255111694,-0.22503596544265747,0.10860555619001389,-0.03109804540872574,0.19192229211330414,0.09830766916275024,-0.1329669952392578,-0.10669039934873581,0.12181773781776428,0.08944620192050934,-0.12968409061431885,-0.11808335781097412,0.14875628054141998,-0.19567839801311493,0.08810295164585114,0.1694420874118805,-0.07357048243284225,0.07170459628105164,0.06295254081487656,0.20944595336914062,0.0385303869843483,-0.10462597757577896,0.07730559259653091,-0.20075981318950653,0.09084783494472504,-0.2318316251039505,-0.047457821667194366,0.034198030829429626,-0.15444694459438324,-0.2184538096189499,0.00147501181345433,-0.08148092031478882,-0.09370932728052139,-0.020759057253599167,-0.15270927548408508,0.19738206267356873,-0.09920396655797958,0.12196045368909836,-0.13119305670261383,-0.24001102149486542,-0.06706549227237701,0.10662161558866501,-0.20421169698238373,0.009517903439700603,-0.005515489727258682,0.09505937993526459,-0.1681101769208908,0.0238146111369133,0.10580121725797653,0.09217317402362823,0.12172671407461166,0.20426617562770844,-0.022822491824626923,-0.1882813572883606,-0.1792527735233307,0.13399100303649902,0.07551943510770798,-0.10577556490898132,0.17570248246192932,-0.2514857351779938,0.0326656848192215,-0.13502006232738495,0.24719512462615967,0.17160522937774658,0.253948450088501,0.179038405418396,-0.02162843942642212,0.1028350219130516,0.2511627674102783,0.18675509095191956,0.11953114718198776,0.2514542043209076,0.10244742035865784,0.19308561086654663,-0.10418852418661118,-0.13600203394889832,-0.2367091029882431,-0.14353035390377045,0.2457614243030548,0.12154918164014816,-0.03353603184223175,-0.20416556298732758,0.01745476946234703,0.09267124533653259,0.05164751783013344,0.09545166045427322,-0.16158483922481537,0.14833186566829681,-0.11458955705165863,0.15303319692611694,0.2756600081920624,-0.0708499476313591,-0.25456592440605164,0.10288634151220322,-0.03155144304037094,-0.1764487773180008,0.061057914048433304,0.015386635437607765,-0.17784824967384338,0.10542364418506622,-0.16109517216682434,0.14748777449131012,-0.14606989920139313,0.11709575355052948,-0.24382759630680084,-0.22137747704982758,-0.08680683374404907,-0.08213632553815842,-0.1919449418783188,-0.11579268425703049,-0.18210920691490173,-0.15931929647922516,0.15698128938674927,-0.2050034999847412,0.16997909545898438,-0.07233379036188126,-0.08916261792182922,0.04613829404115677,0.002270094119012356,-0.07237685471773148,-0.08267390727996826,0.19486060738563538,-0.10514097660779953,-0.03545060753822327,0.22225919365882874,-0.032027918845415115,0.14942583441734314,-0.07728738337755203,-0.21370796859264374,0.17988896369934082,0.078411765396595,0.22364851832389832,0.17014338076114655,0.22214774787425995,0.1169930249452591,-0.11391594260931015,-0.17859046161174774,-0.03477228432893753,-0.01192388217896223,0.033115942031145096,-0.08271177113056183,0.02579207345843315,-0.10780240595340729,0.0003534478892106563,-0.005606767255812883,0.08652954548597336,-0.1806352734565735,-0.06829599291086197,-0.031384050846099854,0.12987400591373444,-0.19279314577579498,-0.24772177636623383,0.10299081355333328,-0.2131882607936859,0.23519429564476013,-0.15364617109298706,-0.1929943710565567,0.2021740972995758,0.11633273959159851,0.08359282463788986,0.14833572506904602,-0.18286743760108948,-0.015315727330744267,0.26334482431411743,0.01879197359085083,-0.12144766747951508,-0.17891395092010498,0.1543751060962677,-0.18187053501605988,0.18313798308372498,0.152980238199234,0.12230290472507477,-0.10516919940710068,-0.018476005643606186,-0.08900847285985947,0.01286411564797163,0.21645313501358032,-0.029651831835508347,-0.11765346676111221,0.10957910120487213,-0.08827464282512665,-0.19282405078411102,0.13150888681411743,0.24837063252925873,0.3145813047885895,0.0354439839720726,0.21157696843147278,0.2030891329050064,0.11056176573038101,-0.1692560762166977,-0.1580163836479187,0.2173226922750473,-0.2099425196647644,-0.1679028421640396,0.1666593849658966,0.22874794900417328,-0.2513069212436676,0.06539976596832275,0.0007046309183351696,-0.12125342339277267,0.04387110099196434,0.2400057166814804,-0.07679543644189835,-0.1858988106250763,0.13130861520767212,-0.009711289778351784,0.12576618790626526,0.10121775418519974,0.20545506477355957,0.023021036759018898,-0.2336663007736206,-0.06492685526609421,-0.11454690992832184,-0.16712921857833862,-0.08875684440135956,-0.16519463062286377,0.1466175615787506,-0.0869191512465477,0.07963873445987701,0.09502481669187546,-0.02993346005678177,-0.11363359540700912,-0.12623219192028046,0.12774407863616943,-0.21344749629497528,0.2475283443927765,0.08135783672332764,0.08560357987880707,-0.28781718015670776,0.03366493806242943,-0.11884614080190659,0.01819554716348648,-0.0006709250155836344,-0.009813912212848663,-0.0847419872879982,0.01821952499449253,0.012360377237200737,-0.05663556605577469,0.054729752242565155,0.08932880312204361,-0.18980062007904053,0.023417683318257332,-0.22363993525505066,-0.24372300505638123,0.22698979079723358,0.021846627816557884,-0.016855038702487946,0.2103785276412964,-0.10088256001472473,0.16329234838485718,-0.2660057246685028,-0.02265256829559803,0.17896367609500885,0.11926517635583878,0.1952705979347229,0.011236454360187054,0.19538845121860504,0.1260816603899002,-0.10706280171871185,-0.06198345497250557,-0.008715919218957424,0.19779592752456665,-0.060669686645269394,0.2519177496433258,-0.10702105611562729,-0.0333172008395195,-0.18965190649032593,0.27921760082244873,-0.12716248631477356,0.2522549331188202,-0.06761790066957474,0.0429847277700901,0.15281493961811066,0.03606544807553291,0.2666513919830322,-0.05801335722208023,-0.00025899073807522655,0.18036137521266937,0.16131316125392914,-0.25831401348114014,-0.0576089546084404,-0.0749863013625145,-0.1558017134666443,0.19218966364860535,0.15580396354198456,0.02166213095188141,0.20241272449493408,0.22048383951187134,0.16794218122959137,0.2045326977968216,0.1819058209657669,-0.022189706563949585,-0.178458571434021,0.25976696610450745,-0.10857708752155304,0.14967761933803558,-0.24157775938510895,-0.17701321840286255,0.24366934597492218,0.15237639844417572,0.06706267595291138,-0.05685560777783394,0.12528632581233978,0.2361922711133957,-0.15214566886425018,-0.2526162266731262,0.2658180892467499,0.08896129578351974,-0.1604657769203186,-0.009442368522286415,0.062943235039711,-0.18988843262195587,0.05939030274748802,0.1611625701189041,0.1377055048942566,0.04474503546953201,0.009259531274437904,-0.18761825561523438,-0.2191733568906784,-0.2218407541513443,-0.09138406813144684,0.19197459518909454,0.0861864760518074,0.12206824868917465,-0.08903120458126068,-0.04035071283578873,0.011297063902020454,-0.24945130944252014,-0.14051760733127594,-0.15239541232585907,0.15953639149665833,0.09975363314151764,-0.03210794925689697,-0.16564509272575378,-0.24633996188640594,-0.1426558792591095,-0.14569492638111115,-0.20182596147060394,0.1305912435054779,-0.027115890756249428,0.07253766804933548,0.19873206317424774,-0.14058946073055267,0.1967557966709137,0.05164289474487305,0.07969781756401062,-0.19744762778282166,0.1893490105867386,-0.14352090656757355,-0.09651924669742584,-0.10570353269577026,0.04187625274062157,0.1489161103963852,-0.17723816633224487,0.09906033426523209,0.20542556047439575,0.11086916923522949,0.09373245388269424,-0.11236148327589035,-0.21908459067344666,0.10672007501125336,-0.15840834379196167,-0.10954102128744125,0.13766807317733765,-0.12785831093788147,-0.082953080534935,-0.1909642517566681,0.26408588886260986,0.15750724077224731,-0.21904020011425018,-0.1606726348400116,0.22152650356292725,-0.14203643798828125,-0.11404622346162796,0.028539204970002174,0.17674222588539124,-0.2158086895942688,-0.20710822939872742,-0.020743530243635178,-0.2528167963027954,0.122507244348526,-0.02894550934433937,-0.19420695304870605,-0.05506221950054169,0.04947132244706154,-0.2429586797952652,-0.18239107728004456,-0.0008890624158084393,0.14426124095916748,-0.2035357803106308,-0.23564831912517548,-0.16610673069953918,0.12904934585094452,0.24235816299915314,0.20224851369857788,0.21803419291973114,0.05032322555780411,-0.25436919927597046,-0.13883091509342194,-0.1071363240480423,-0.15243279933929443,0.20885099470615387,0.24073046445846558,0.23074746131896973,0.20099587738513947,-0.011107359081506729,0.0531579926609993,0.12446616590023041,0.10315406322479248,0.1385525017976761,-0.168659046292305,-0.0767439603805542,-0.009482089430093765,-0.20359277725219727,0.1008535847067833,0.12153105437755585,-0.13254359364509583,0.0004211946506984532,-0.1842803806066513,-0.0389910489320755,-0.039213236421346664,0.11238490045070648,-0.1915687918663025,-0.13108456134796143,0.12512008845806122,0.2220214158296585,-0.03542040288448334,-0.08172107487916946,0.1450175642967224,-0.14179307222366333,0.25428932905197144,0.041368819773197174,-0.01838328316807747,-0.13140183687210083,0.21265852451324463,0.031088730320334435,-0.038178086280822754,0.16515995562076569,0.014628563076257706,0.1671050488948822,0.21090653538703918,0.010051392950117588,0.2087969183921814,-0.045783158391714096,-0.04188795015215874,0.25808241963386536,-0.0476301945745945,-0.09646698087453842,-0.24457098543643951,-0.2501368820667267,0.03554343432188034,-0.218949094414711,0.015070099383592606,0.12414049357175827,-0.17208805680274963,0.030497567728161812,-0.23690448701381683,0.004135778173804283,0.15434953570365906,-0.07805921882390976,0.2307235300540924,-0.0708659291267395,0.12171504646539688,0.02667311206459999,0.09192012250423431,0.024167228490114212,-0.11559739708900452,0.23383007943630219,0.23028962314128876,0.008082541637122631,-0.1392545849084854,-0.22472652792930603,-0.015581682324409485,-0.08006688952445984,-0.017703084275126457,-0.01256160531193018,-0.2211117148399353,-0.02005680277943611,0.10332378000020981,-0.21189729869365692,0.23839345574378967,0.12894302606582642,0.2027171552181244,-0.22072896361351013,-0.0069134170189499855,0.01635841280221939,-0.2570853531360626,0.10512001812458038,-0.01787109673023224,0.11258422583341599,-0.17612436413764954,-0.10417335480451584,0.24378937482833862,0.08344247937202454,-0.19971910119056702,0.19566302001476288,0.058331288397312164,0.20351380109786987,0.2144419103860855,-0.14487780630588531,0.18585434556007385,-0.16616946458816528,0.26237204670906067,0.2009202241897583,-0.28370997309684753,0.03548317402601242,0.2224586457014084,0.10646255314350128,0.2329031080007553,-0.06770689785480499,0.20819492638111115,0.2145678997039795,0.24243871867656708,-0.04374099150300026,-0.07645729929208755,0.012447902001440525,0.1698668897151947,-0.017025699838995934,-0.10590112954378128,-0.14114117622375488,0.041090548038482666,0.03570716455578804,0.09585241973400116,-0.14349552989006042,0.04576330631971359,-0.20098233222961426,0.10667683184146881,-0.25129038095474243,0.16346077620983124,0.06929225474596024,0.00040181243093684316,-0.15141862630844116,-0.08114329725503922,-0.21673376858234406,0.2581498324871063,0.142102912068367,0.2512878477573395,-0.1068841964006424,-0.2631021738052368,0.08884841203689575,0.08794522285461426,0.10846038162708282,0.001762185012921691,-0.08647268265485764,0.19347810745239258,-0.17900066077709198,-0.22585347294807434,-0.10951333492994308,0.049111805856227875,0.14476481080055237,0.1372264325618744,0.017212260514497757,-0.08100392669439316,-0.10324159264564514,-0.08068706095218658,-0.01759227365255356,0.24372166395187378,-0.1877771019935608,-0.02759900689125061,-0.19569885730743408,0.008761722594499588,-0.018045315518975258,-0.2171374261379242,-0.21647943556308746,-0.04766353964805603,0.2600463032722473,0.054023463279008865,-0.2797313928604126,0.23471900820732117,0.1694151908159256,-0.1339639276266098,-0.11249306052923203,0.006048928946256638,0.10257366299629211,0.24742817878723145,0.27699148654937744,-0.07448862493038177,0.22533948719501495,-0.24977926909923553,0.17533336579799652,0.12611307203769684,-0.07736711204051971,-0.06052466854453087,0.07214755564928055,0.14271849393844604,0.17363202571868896,0.09707248955965042,-0.05087177827954292,-0.15130615234375,0.1574813425540924,0.22362124919891357,0.021292943507432938,-0.07083217799663544,0.18006287515163422,-0.20553946495056152,-0.18685747683048248,0.09205291420221329,-0.22824925184249878,-0.013435488566756248,0.08012156188488007,-0.19171655178070068,-0.19851309061050415,-0.24108877778053284,-0.023433929309248924,-0.14835530519485474,0.19499057531356812,0.1085711419582367,0.11031477898359299,0.18122893571853638,0.10458608716726303,-0.050915952771902084,0.17133557796478271,-0.243114173412323,-0.21117576956748962,0.01516004092991352,-0.25643596053123474,-0.14631065726280212,0.0702211931347847,0.07918206602334976,0.019254116341471672,0.1574426293373108,-0.1723559945821762,-0.19939500093460083,0.08319150656461716,0.17521269619464874,-0.1158415675163269,-0.19541111588478088,0.205560103058815,0.003096145112067461,0.023335983976721764,-0.022037522867321968,-0.2227615863084793,0.21394409239292145,0.17870360612869263,-0.03438307344913483,-0.19803214073181152,-0.010820453055202961,0.1741885095834732,-0.15524449944496155,0.12785086035728455,0.24955375492572784,0.19590190052986145,-0.09631157666444778,-0.15562638640403748,-0.08212551474571228,-0.18713490664958954,-0.10522927343845367,-0.2400650680065155,-0.17110830545425415,-0.15871159732341766,0.01851543039083481};
const weight_t B1[N_HIDDEN_1] = {
    0.028684427961707115,0.09005001187324524,0.046888649463653564,0.029643211513757706,0.02777993679046631,0.0048696319572627544,-0.027571149170398712,0.03821336850523949,0.005311534274369478,0.0589359775185585,0.02528282441198826,0.052678655833005905,0.008091374300420284,0.021936960518360138,0.02448655292391777,-0.0507294163107872,0.029864564538002014,-0.028054002672433853,-2.8583301173057407e-05,0.04769472777843475,-0.010636435821652412,-0.04220522195100784,0.04676017165184021,0.028805796056985855,0.03541555255651474,0.050281018018722534,-0.001274592592380941,0.030122611671686172,0.000410622131312266,-0.025154098868370056,-0.010972756892442703,0.008806977421045303,0.06318419426679611,0.0479678139090538,0.007540855556726456,-0.00677405996248126,0.034111138433218,0.09154421091079712,-0.019953085109591484,0.0640556663274765,0.03241274878382683,0.016750117763876915,0.0016069249249994755,0.08390405029058456,-0.009484375827014446,0.007576235104352236,0.06548014283180237,-0.0013065164675936103,0.08484507352113724,-0.00877153966575861};
const weight_t W2[N_HIDDEN_1 * N_HIDDEN_2] = {
    -0.10277553647756577,0.05268549919128418,0.1850820779800415,0.17051076889038086,0.14857643842697144,0.18142320215702057,-0.11096026003360748,-0.029409687966108322,0.09067872166633606,-0.16524015367031097,0.25678887963294983,0.2249375730752945,0.06659312546253204,0.14455892145633698,0.1679760366678238,0.050944775342941284,-0.1749982386827469,0.0904894694685936,0.15991343557834625,-0.014733023941516876,0.21332202851772308,0.10229776054620743,0.13684050738811493,0.16076824069023132,-0.07267052680253983,0.012242435477674007,0.0781032145023346,-0.263682097196579,-0.13642971217632294,-0.1605338156223297,0.007063817698508501,-0.013282926753163338,0.031881339848041534,-0.16088618338108063,-0.2199125736951828,-0.14648422598838806,-0.14455315470695496,-0.031164465472102165,-0.21340613067150116,-0.10351972281932831,-0.18656334280967712,0.14160095155239105,0.09548772126436234,0.12808991968631744,0.19346298277378082,0.17330265045166016,0.030054224655032158,-0.0510232038795948,0.05514790862798691,-0.17302070558071136,-0.11200250685214996,-0.21253502368927002,-0.09818778187036514,-0.027020450681447983,0.029154855757951736,-0.2051761895418167,-0.022478071972727776,-0.21788476407527924,-0.07083176076412201,-0.12886323034763336,-0.09410110861063004,-0.0766330286860466,-0.23134981095790863,0.3167428970336914,0.04595522955060005,-0.1624307781457901,0.17569012939929962,0.19113339483737946,0.2306148260831833,0.23066048324108124,0.1302967369556427,0.19870363175868988,-0.07123218476772308,0.158835306763649,-0.22074058651924133,0.30297863483428955,0.21401666104793549,-0.056281331926584244,-0.09834618121385574,0.08955839276313782,0.0004494323511607945,0.1790318787097931,0.2027571201324463,-0.1990574598312378,0.1585940271615982,0.2104768455028534,0.26727724075317383,-0.19189903140068054,0.17666077613830566,-0.04213486239314079,0.25006747245788574,-0.1785152405500412,0.024380862712860107,-0.14991669356822968,0.16012272238731384,-0.031283337622880936,0.2554841637611389,0.252962589263916,-0.1714353859424591,0.08757110685110092,-0.03007381595671177,-0.07700162380933762,0.17280519008636475,-0.006192396394908428,0.1294592320919037,0.17921261489391327,-0.015291804447770119,0.1555001586675644,0.026318201795220375,0.2026004046201706,0.04127419367432594,0.035038307309150696,0.17785638570785522,-0.013552602380514145,-0.23728960752487183,-0.02433733269572258,-0.22758843004703522,-0.02157466672360897,-0.24968057870864868,-0.038992635905742645,-0.20709683001041412,-0.1213555559515953,-0.18627752363681793,-0.10505139827728271,-0.03866099566221237,0.017232531681656837,-0.21165646612644196,0.04425210878252983,-0.07287882268428802,-0.1276399940252304,0.24709592759609222,0.1232684850692749,-0.20792508125305176,0.2143498808145523,-0.05014787241816521,-0.134141743183136,0.009609593078494072,0.05191297084093094,0.048857681453228,0.18562017381191254,-0.04687561094760895,0.06232573464512825,0.21013358235359192,-0.12450936436653137,-0.11536039412021637,0.051260266453027725,0.07331561297178268,0.04264680668711662,-0.10490922629833221,0.20523376762866974,0.16396580636501312,-0.16471950709819794,0.02592572569847107,-0.14240863919258118,0.2276306450366974,0.11337243020534515,0.007523202802985907,0.1261092722415924,0.020438462495803833,0.2227623015642166,0.021716265007853508,0.020084453746676445,-0.015614457428455353,0.02161993645131588,-0.14872705936431885,-0.2067861557006836,0.03949609771370888,0.14423637092113495,0.05759681761264801,-0.0017445633420720696,-0.190720334649086,0.04946598783135414,0.2550584077835083,0.1838204562664032,0.07848865538835526,-0.11095413565635681,-0.20061694085597992,0.15423175692558289,-0.07847677916288376,-0.10652890801429749,0.05353229120373726,0.10237708687782288,0.09608474373817444,-0.005513634067028761,-0.14483244717121124,0.06496788561344147,0.20361942052841187,0.034653156995773315,0.21974016726016998,-0.17962275445461273,0.09398148953914642,-0.18021799623966217,-0.10713953524827957,0.12659120559692383,0.18853135406970978,-0.10328971594572067,-0.2062690258026123,0.200235515832901,0.2728535234928131,0.05624789372086525,0.21668680012226105,0.09810629487037659,-0.10951904952526093,-0.14233249425888062,-0.07706541568040848,0.07263748347759247,-0.15306951105594635,-0.12060485780239105,0.08721224963665009,0.21785224974155426,-0.030932003632187843,-0.15051719546318054,0.09164727479219437,-0.19401045143604279,-0.023037094622850418,-0.15243588387966156,0.20706886053085327,0.295830100774765,-0.18223480880260468,-0.03991682454943657,0.16348983347415924,0.10769712924957275,-0.025890644639730453,-0.09502745419740677,0.16533268988132477,-0.23108141124248505,-0.15600183606147766,0.08435720205307007,0.13452278077602386,-0.05939709022641182,0.12742401659488678,-0.16575409471988678,0.12711521983146667,0.13086958229541779,-0.12389136850833893,0.1770702451467514,0.1276710331439972,-0.19907599687576294,-0.19255243241786957,0.07726164162158966,-0.24800488352775574,0.02860085479915142,0.1523951143026352,0.133672297000885,-0.0951312780380249,-0.04669347032904625,0.18707114458084106,0.05664963647723198,0.19011929631233215,0.025164389982819557,-0.17040544748306274,-0.2909925580024719,0.09614165127277374,-0.12216562032699585,-0.06490284949541092,0.22540804743766785,0.05472489073872566,0.1837703138589859,0.2157095968723297,0.11920187622308731,-0.14114828407764435,0.23506242036819458,-0.13399548828601837,0.17437602579593658,0.1948375254869461,-0.07242785394191742,0.21480649709701538,-0.02775101363658905,0.1535600870847702,0.022411998361349106,0.18617868423461914,-0.032546672970056534,-0.20707504451274872,0.24733324348926544,0.14232710003852844,0.16888025403022766,0.2813187837600708,-0.20314937829971313,0.1646694839000702,0.1179397851228714,0.06273401528596878,0.059321917593479156,-0.10642445832490921,0.10153292864561081,0.2222047746181488,0.16494764387607574,-0.09142925590276718,0.19725216925144196,-0.09230870008468628,0.093684121966362,0.10040178894996643,0.16352397203445435,-0.0604371652007103,-0.11790163069963455,0.1767418384552002,0.006363455671817064,-0.0428103469312191,-0.1436423361301422,0.04597128555178642,0.0462045781314373,0.10722000151872635,-0.21845339238643646,0.1878073364496231,0.18006737530231476,0.23034736514091492,-0.07863445580005646,0.011864829808473587,0.008223062381148338,0.235929936170578,0.21235953271389008,-0.05530629679560661,-0.18475092947483063,-0.0875789150595665,-0.15033864974975586,0.06907285749912262,0.21320830285549164,0.24658143520355225,-0.23712573945522308,-0.09128284454345703,-0.009706718847155571,-0.19566236436367035,-0.12661780416965485,-0.012812789529561996,-0.06750398874282837,-0.19341307878494263,-0.06855180859565735,-0.10901042073965073,0.05084275081753731,-0.0015015692915767431,-0.16248928010463715,-0.04202806577086449,0.10558059811592102,-0.08662883192300797,-0.10423650592565536,0.08328643441200256,-0.1663353145122528,0.048747554421424866,-0.08463892340660095,-0.08416523039340973,0.1399177610874176,0.1061093807220459,-0.024062231183052063,0.044834382832050323,0.1571771800518036,-0.05489598214626312,0.16286656260490417,-0.06879867613315582,-0.06148316711187363,0.0574476420879364,-0.18962566554546356,-0.12273287773132324,0.2040771245956421,0.09161553531885147,-0.15006843209266663,-0.254619836807251,-0.22743454575538635,-0.13929757475852966,0.26305124163627625,-0.06324788928031921,0.1905299872159958,0.13686512410640717,-0.2135467827320099,0.251126766204834,0.03958840295672417,0.1594976782798767,0.2379724234342575,-0.1036660298705101,-0.12930676341056824,-0.19457903504371643,0.12360167503356934,-0.021808484569191933,-0.07310378551483154,-0.06932766735553741,-0.19234652817249298,0.1470416933298111,-0.10542435944080353,-0.1500803530216217,-0.15603765845298767,0.18546046316623688,0.13811679184436798,0.12397930771112442,0.057012833654880524,0.23157967627048492,-0.09078816324472427,-0.18244215846061707,-0.15448258817195892,-0.22668342292308807,-0.2611405551433563,-0.18221865594387054,0.13929781317710876,-0.16585037112236023,-0.21486636996269226,-0.1846609115600586,0.13212543725967407,0.042201776057481766,0.27059629559516907,0.09007585048675537,0.2141048163175583,-0.003629071870818734,0.21033914387226105,-0.11414676904678345,0.10870521515607834,-0.08778351545333862,0.28449809551239014,0.03367786481976509,0.011323582381010056,0.1862948089838028,-0.04889420047402382,0.17029421031475067,0.21578845381736755,0.02019396610558033,-0.12362104654312134,0.1113227978348732,-0.11270879954099655,-0.11950785666704178,-0.0770576074719429,0.11822293698787689,-0.20206105709075928,-0.03639164939522743,-0.11034891754388809,-0.17561878263950348,0.19938433170318604,-0.05200750380754471,0.02059382200241089,0.13608363270759583,-0.14023038744926453,0.03658931329846382,-0.20584751665592194,0.059542231261730194,0.06156349927186966,-0.16829270124435425,-0.12808646261692047,0.05384524539113045,0.22212210297584534,0.19346651434898376,-0.1490796059370041,0.231561079621315,0.28479355573654175,-0.11964455246925354,0.2572653591632843,0.0948329046368599,-0.094078429043293,-0.160093754529953,0.05133815109729767,-0.1162094995379448,0.031927529722452164,0.19145673513412476,0.24537105858325958,-0.14095032215118408,0.2237618863582611,0.26420721411705017,0.03842459246516228,0.1741623431444168,0.03550783544778824,-0.05738791823387146,0.18172669410705566,-0.23009447753429413,0.12178035080432892,0.0994860827922821,-0.17338506877422333,-0.12636509537696838,0.20727932453155518,-0.19074758887290955,-0.10769632458686829,0.0651792660355568,0.23089341819286346,0.13513782620429993,-0.06091029569506645,-0.16781246662139893,-0.14279355108737946,0.04963338002562523,-0.0653165653347969,-0.062083594501018524,-0.15626928210258484,0.09196657687425613,0.16693729162216187,-0.22137969732284546,0.18857231736183167,-0.24130375683307648,-0.16084489226341248,0.22174903750419617,-0.15254925191402435,-0.18558990955352783,0.014262724667787552,0.03168806806206703,-0.15116262435913086,0.04042381793260574,0.17107845842838287,-0.21870294213294983,0.25564372539520264,-0.20819354057312012,-0.2301594763994217,0.219763845205307,0.018731554970145226,0.13670332729816437,0.21519571542739868,0.1269972175359726,0.11800499260425568,-0.22681398689746857,-0.15863651037216187,0.2162611186504364,-0.10081130266189575,0.03267989307641983,-0.16946102678775787,-0.14201512932777405,0.041572727262973785,-0.19603928923606873,-0.15803824365139008,-0.2519148886203766,0.1342761218547821,0.2397790551185608,-0.27330249547958374,-0.009345335885882378,-0.2328222393989563,0.21136164665222168,-0.013571508228778839,0.08141685277223587,0.28831735253334045,0.11658085137605667,0.27020516991615295,0.08248943090438843,-0.06865198910236359,-0.054910335689783096,-0.19600710272789001,0.0009158204193226993,-0.0684443861246109,-0.028884684666991234,0.1544976681470871,-0.17711688578128815,-0.058523908257484436,-0.17958618700504303,-0.12168055027723312,0.19318543374538422,0.057485900819301605,-0.05824650079011917,-0.24270232021808624,0.0210284311324358,-0.23255254328250885,0.2633815407752991,0.02265331894159317,-0.1023029237985611,-0.15523774921894073,-0.05801641196012497,-0.06783472746610641,0.18254727125167847,0.0003562651399988681,-0.1726554036140442,0.22739776968955994,0.133074089884758,-0.22822296619415283,-0.036479249596595764,-0.10860380530357361,0.17647863924503326,0.05113828554749489,-0.06843503564596176,-0.14162543416023254,0.1777336746454239,0.11137641221284866,-0.1211218312382698,-0.19982458651065826,0.12152770161628723,-0.024801980704069138,0.11349678784608841,0.16334319114685059,0.2506595849990845,-0.05024449899792671,-0.005689719226211309,0.14819303154945374,0.16802802681922913,0.12135045975446701,0.2821195423603058,-0.1676422506570816,0.20017674565315247,-0.19462497532367706,-0.2603145241737366,-0.1380494236946106,-0.06803014874458313,-0.08267156779766083,0.013335741125047207,-0.03711477667093277,0.04436076059937477,-0.11864884942770004,-0.04089602455496788,-0.19662174582481384,0.1293584406375885,-0.1421070098876953,0.23177260160446167,-0.09649164229631424,0.17998749017715454,-0.019059710204601288,0.04070216789841652,0.1406153291463852,0.17194892466068268,0.08742161840200424,0.08714674413204193,-0.2511012554168701,0.10308047384023666,0.17738506197929382,-0.056808050721883774,0.1260574758052826,0.22425737977027893,-0.22626419365406036,0.24160967767238617,0.012838482856750488,-0.08279936015605927,0.0821012556552887,-0.10860168933868408,0.06283634901046753,0.21847973763942719,0.09656830877065659,0.01489188615232706,-0.01671174168586731,0.19693368673324585,0.19022639095783234,-0.08695235848426819,0.10585261136293411,0.10418064147233963,0.10633106529712677,0.14865587651729584,0.123982273042202,0.10842736810445786,-0.1498081535100937,0.12327635288238525,-0.21356017887592316,0.11629436165094376,-0.1430233269929886,-0.02554026059806347,0.15424112975597382,0.19934004545211792,0.20087487995624542,0.14279061555862427,-0.003976213745772839,0.17146800458431244,-0.20677322149276733,-0.16242989897727966,0.2203425168991089,0.11806094646453857,0.07599759846925735,-0.060659702867269516,-0.08197878301143646,-0.13185298442840576,0.20956632494926453,0.09325751662254333,0.00044941852684132755,-0.007511931471526623,-0.1709764450788498,-0.214990496635437,0.056514013558626175,0.19035571813583374,-0.014224949292838573,-0.01135728694498539,-0.09905227273702621,-0.0803355947136879,0.2018033266067505,0.14512118697166443,0.19683338701725006,0.2146550714969635,-0.08512309938669205,0.002679017838090658,-0.17757736146450043,-0.11684917658567429,-0.1268250197172165,0.0039519052952528,0.23249565064907074,0.14695240557193756,0.1133158877491951,0.15363119542598724,0.21064722537994385,-0.1934608370065689,-0.024924535304307938,0.2141430526971817,-0.0865277424454689,-0.10087604820728302,0.023983074352145195,0.28217411041259766,0.19440019130706787,0.14160828292369843,0.2032584398984909,0.006861868780106306,-0.1853843480348587,-0.18489396572113037,-0.2606029510498047,0.17386074364185333,0.09801822155714035,0.06126587465405464,0.11066310852766037,0.1674124002456665,-0.1121869906783104,-0.16335569322109222,0.1766253411769867,0.13607685267925262,-0.12472312152385712,-0.10053226351737976,-0.14146573841571808,0.194220632314682,0.1305454820394516,0.23313260078430176,-0.1258474588394165,0.019472135230898857,0.1580476313829422,0.08688174933195114,0.28576305508613586,0.10326692461967468,-0.12030095607042313,-0.05575443431735039,-0.1105353981256485,-0.17733070254325867,-0.02666202001273632,0.028037939220666885,0.07824373990297318,-0.18679559230804443,-0.1035509780049324,-0.08748557418584824,0.1792048066854477,-0.11180777102708817,-0.13920781016349792,-0.07198496162891388,-0.18192555010318756,-0.1448381543159485,0.17155852913856506,0.19547781348228455,-0.06686502695083618,0.1832810789346695,0.042934246361255646,-0.2163754552602768,0.12248159199953079,-0.1599504053592682,0.14289066195487976,-0.1792961061000824,-0.21115463972091675,-0.001047431374900043,0.2175036370754242,0.1402023285627365,0.14883047342300415,0.08761956542730331,-0.00043026069761253893,-0.0797552689909935,-0.1158636286854744,0.2197672575712204,0.1198616623878479,0.15510444343090057,-0.21598605811595917,0.21144703030586243,-0.2081601619720459,-0.12760519981384277,0.19531670212745667,-0.050264328718185425,-0.13974915444850922,-0.06495682895183563,-0.22840237617492676,0.0800933763384819,0.16317343711853027,0.20401200652122498,-0.13767628371715546,0.23285949230194092,-0.11562793701887131,0.18746334314346313,0.13255059719085693,-0.1304619312286377,-0.15415282547473907,0.08689920604228973,-0.08198454231023788,0.09861672669649124,0.061275046318769455,-0.14955423772335052,0.06848940253257751,0.08375216275453568,0.20773696899414062,-0.1669873744249344,-0.09629891812801361,-0.21248622238636017,0.07953409850597382,-0.17522317171096802,-0.15904147922992706,-0.2553715109825134,-0.07916836440563202,-0.1743985265493393,-0.15587732195854187,0.0001625834993319586,-0.012183033861219883,-0.20106780529022217,-0.2035229206085205,0.20775312185287476,-0.14914287626743317,-0.19459249079227448,0.20824143290519714,-0.0569724477827549,-0.12293918430805206,-0.18955077230930328,-0.088038869202137,-0.22431211173534393,0.018753081560134888,-0.15514566004276276,0.14240653812885284,-0.0422133207321167,-0.0022642381954938173,0.0018509002402424812,0.026135101914405823,-0.13294975459575653,-0.08201665431261063,0.07131611555814743,0.10621459782123566,-0.07017585635185242,0.137984037399292,-0.17859506607055664,0.06910771131515503,0.03423050045967102,0.061224110424518585,-0.18075796961784363,0.08635281771421432,-0.012074247933924198,0.22748573124408722,-0.02200283855199814,0.1703866571187973,0.1604311466217041,-0.06524691730737686,0.12141010910272598,-0.1518828272819519,-0.13042007386684418,0.018838655203580856,0.021481076255440712,0.008872132748365402,0.04974282905459404,-0.1682906448841095,-0.10166363418102264,0.10521261394023895,0.1805996596813202,-0.15155208110809326,-0.03703979030251503,0.05414897948503494,-0.2082391232252121,0.16891641914844513,0.18523073196411133,0.0333026722073555,0.07478628307580948,0.07914240658283234,0.13261833786964417,-0.1722486913204193,-0.13444377481937408,-0.09277357906103134,0.1369616836309433,-0.14860083162784576,0.022925613448023796,-0.1138768345117569,-0.08126237243413925,-0.04291658475995064,-0.1703605204820633,0.17030197381973267,0.13462810218334198,0.18944573402404785,-0.013062777929008007,0.059116095304489136,-0.24832969903945923,0.16488465666770935,-0.10268033295869827,0.09658455103635788,-0.17806178331375122,-0.15881218016147614,0.12179243564605713,-0.12122628092765808,0.1370134949684143,-0.007928665727376938,-0.0363418348133564,0.1140739694237709,0.11400192230939865,0.03616824373602867,0.08214613795280457,-0.0685034990310669,0.1699649691581726,-0.09614542871713638,0.03042249009013176,-0.1868189573287964,-0.07575661689043045,0.14862121641635895,0.03444642201066017,0.10982346534729004,-0.11722460389137268,0.07780662178993225,-0.18883085250854492,0.17517656087875366,-0.04209629073739052,-0.03487604856491089,0.03299855813384056,0.07584598660469055,-0.04988645762205124,0.0013445629738271236,-0.09845981001853943,-0.1259937882423401,-0.0517117939889431,-0.18196837604045868,0.2113158255815506,0.12679846584796906,-0.18002134561538696,-0.007673452142626047,-0.11095516383647919,0.10733763873577118,-0.04563816264271736,0.06931091099977493,0.07308361679315567,0.08517324179410934,0.09728368371725082,-0.08656299859285355,-0.07107558101415634,0.22778689861297607,0.19737878441810608,0.045548275113105774,0.04028624668717384,0.09596101194620132,0.05403678119182587,0.21198123693466187,-0.05705411732196808,-0.10267572104930878,-0.19552288949489594,0.08979322016239166,-0.0011560647981241345,-0.03293905779719353,0.08451072871685028,0.2257985770702362,0.13254836201667786,0.15658323466777802,-0.13280342519283295,0.20505517721176147,0.22634835541248322,0.1058606430888176,-0.1001705676317215,-0.22442565858364105,-0.16126087307929993,0.02392486482858658,0.09062866121530533,0.15770196914672852,-0.019395478069782257,-0.043946053832769394,0.10615438967943192,-0.051685042679309845,-0.0649091899394989,0.21272268891334534,0.1604495793581009,0.14419721066951752,-0.11241182684898376,-0.1014818549156189,0.01331037562340498,0.1643124222755432,-0.09543812274932861,-0.19773942232131958,0.0996941477060318,-0.015627149492502213,-0.15621092915534973,-0.05431089922785759,0.04969950392842293,-0.08998192846775055,0.021292459219694138,0.07321283221244812,-0.05658575892448425,0.1757308691740036,-0.10652509331703186,0.18486608564853668,0.028772402554750443,-0.02979113906621933,0.05956358090043068,0.1527511030435562,0.3051985502243042,0.1481146365404129,-0.08760729432106018,0.16912607848644257,-0.2764771580696106,0.1793513298034668,0.25339585542678833,0.2373591661453247,-0.12669022381305695,0.18094280362129211,-0.12464945018291473,-0.21223393082618713,0.09142617136240005,-0.14985106885433197,-0.13265728950500488,-0.177036315202713,-0.01917232945561409,0.17606213688850403,-0.024496663361787796,-0.19418752193450928,-0.17342612147331238,0.1283256709575653,-0.04776960611343384,0.04910361021757126,0.127053365111351,-0.09617539495229721,0.14707551896572113,-0.07587002962827682,0.20309345424175262,0.1388898640871048,0.08118919283151627,-0.03476222977042198,0.14944691956043243,0.11578894406557083,-0.13976138830184937,-0.021654989570379257,-0.08531063050031662,0.016405852511525154,0.15109480917453766,-0.1539127081632614,0.04802141711115837,-0.13993190228939056,0.20374485850334167,0.22037434577941895,0.0033016232773661613,0.11264526844024658,0.05509293079376221,-0.15612445771694183,-0.09896077960729599,-0.1739877164363861,-0.07843702286481857,-0.05206255614757538,-0.011109685525298119,0.1966729313135147,-0.13468371331691742,-0.009605529718101025,0.19530625641345978,-0.1303316354751587,-0.13340164721012115,-0.22721396386623383,0.09759039431810379,-0.2072473168373108,-0.20661243796348572,-0.014292492531239986,-0.11971615999937057,0.04745475947856903,0.1579582542181015,0.15841007232666016,-0.08092808723449707,0.20207375288009644,-0.10925348103046417,-0.010794744826853275,-0.03219081461429596,0.20820437371730804,0.2794494330883026,-0.2406979203224182,0.06037678197026253,0.04474864900112152,0.12282366305589676,-0.06819161772727966,0.2332073450088501,0.04379541054368019,0.06598982959985733,0.09146468341350555,0.2451995313167572,0.12207234650850296,-0.0037102829664945602,-0.23769086599349976,-0.16421540081501007,0.09684941172599792,-0.057797305285930634,0.24767589569091797,0.21900902688503265,-0.18576951324939728,-0.220223531126976,-0.009328382089734077,0.1661684662103653,-0.036187004297971725,-0.010345296002924442,0.025494273751974106,-0.006931451614946127,-0.02821686677634716,0.1328486204147339,-0.20668071508407593,0.0949864387512207,-0.18974152207374573,0.10809149593114853,-0.15281932055950165,-0.16278162598609924,-0.1026221439242363,-0.10686934739351273,0.0887269452214241,-0.17527198791503906,0.011282888241112232,0.00313751888461411,0.1553453803062439,-0.12832264602184296,-0.19706913828849792,0.21894262731075287,0.18413595855236053,-0.13625307381153107,0.09393708407878876,-0.1242980808019638,0.1772901862859726,-0.021791351959109306,0.10467763990163803,-0.04446478560566902,0.03900419920682907,-0.09627693891525269,-0.191080242395401,-0.02137373574078083,-0.21737290918827057,-0.03405394032597542,0.0924251452088356,0.1481485813856125,-0.015363170765340328,-0.1320990025997162,0.059250883758068085,0.04355882108211517,0.05372307449579239,-0.12492740899324417,-0.11204162985086441,-0.0539948046207428,-0.00441712886095047,-0.2448713630437851,-0.1794108897447586,-0.1242336556315422,0.04421210289001465,0.001631269813515246,0.14469961822032928,-0.024186594411730766,-0.2488161027431488,-0.17426452040672302,-0.09853929281234741,-0.21146687865257263,0.2683154344558716,-0.10030116140842438,0.19625887274742126,0.20171482861042023,0.274808794260025,-0.0888141542673111,-0.09167972952127457,-0.1468757838010788,0.11349170655012131,0.059555187821388245,0.14264819025993347,-0.21573691070079803,0.20983201265335083,0.12834644317626953,-0.2744849920272827,0.1832059770822525,0.03507717326283455,-0.10752847045660019,-0.07903116196393967,-0.0945654809474945,-0.08801841735839844,0.1623276174068451,0.15834316611289978,0.07173287123441696,0.026967978104948997,-0.19670580327510834,-0.01729387417435646,0.17009423673152924,-0.24637471139431,-0.1275012046098709,0.17000646889209747,-0.2705361545085907,-0.002053508535027504,-0.23427709937095642,0.09932965785264969,-0.08982251584529877,-0.09066811949014664,-0.024867480620741844,0.25771939754486084,-0.15156422555446625,-0.040710948407649994,0.18414196372032166,0.030751191079616547,0.008077563717961311,-0.22632575035095215,-0.20570108294487,-0.16688919067382812,0.07148593664169312,-0.20169131457805634,0.20612473785877228,0.06526541709899902,-0.22826550900936127,-0.10869412124156952,0.08222172409296036,-0.07070920616388321,0.014033108949661255,0.1397780478000641,0.039606090635061264,0.11037050932645798,0.07992501556873322,0.20510214567184448,0.09836059808731079,0.014698597602546215,0.2231951504945755,0.1451929807662964,-0.25929754972457886,0.08053755760192871,0.060352083295583725,0.26835450530052185,-0.07407158613204956,-0.027919577434659004,0.028126869350671768,0.05663206800818443,0.22246263921260834,-0.12378094345331192,0.016751118004322052,-0.00967122707515955,0.21600811183452606,0.043851543217897415,-0.10800384730100632,0.1969248503446579,-0.17823727428913116,0.19499531388282776,0.07115007936954498,0.1195395439863205,-0.1377401202917099,0.1848629266023636,-0.21062172949314117,-0.12323857098817825,-0.06506329029798508,0.28478267788887024,-0.1294962763786316,-0.20673729479312897,-0.2507864832878113,-0.11940550804138184,0.20727726817131042,0.04747069627046585,0.1118946224451065,0.19829484820365906,0.2087029218673706,-0.009378422051668167,0.10843878984451294,0.16823965311050415,-0.04922862350940704,-0.03543390706181526,0.10328735411167145,0.24038036167621613,-0.12916776537895203,-0.127421572804451,0.1235818937420845,-0.07994458079338074,0.04127497225999832,0.19848711788654327,0.1778097152709961,0.030204709619283676,-0.022381259128451347,-0.2321212738752365,-0.19110240042209625,-0.10926841199398041,0.07091555744409561,0.06519393622875214,0.20755299925804138,0.1411934792995453,0.14582523703575134,0.19605550169944763,0.09505122154951096,-0.19481700658798218,0.050189025700092316,-0.006998803932219744,0.12917645275592804,-0.12029968202114105,-0.23796510696411133,0.17581187188625336,-0.004246621858328581,-0.06377726793289185,0.11534042656421661,0.22397999465465546,0.009619803167879581,-0.14465567469596863,0.1273721605539322,0.0985487848520279,0.13728274405002594,-0.1375962346792221,-0.009990091435611248,0.09009922295808792,-0.0063971769995987415,-0.12919104099273682,-0.08723652362823486,-0.014694222249090672,0.1588994413614273,0.23505498468875885,-0.021717777475714684,-0.00030654683359898627,0.07791497558355331,0.0450875349342823,0.015167643316090107,0.2675674855709076,0.14566610753536224,0.00564158009365201,0.2396087646484375,0.004199369810521603,-0.14542965590953827,-0.21694204211235046,0.20604082942008972,0.025222282856702805,-0.17431128025054932,-0.09426391124725342,-0.2241746485233307,-0.052770983427762985,0.030461912974715233,0.14411966502666473,-0.17130383849143982,0.16996225714683533,0.1860799342393875,0.1466938704252243,-0.03951717168092728,0.00608424749225378,0.14029695093631744,-0.09891936182975769,-0.06466260552406311,0.1816403567790985,0.1486826092004776,-0.07734793424606323,-0.23043504357337952,0.17279180884361267,0.1433444768190384,-0.06438403576612473,0.08853164315223694,-0.11447320878505707,-0.2002706229686737,0.1370018720626831,-0.0036871363408863544,0.16011938452720642,-0.14146819710731506,0.0732370987534523,-0.11395725607872009,-0.17388220131397247,0.17933039367198944,-0.025642357766628265,-0.054308075457811356,0.059260573238134384,-0.10000008344650269,0.026363076642155647,-0.05420062318444252,0.15577450394630432,-0.11248386651277542,-0.0868382677435875,0.033687833696603775,0.04307885095477104,0.045643389225006104,0.2204224318265915,0.09349119663238525,-0.03642842918634415,0.21987111866474152,0.17156986892223358,-0.09813202917575836,-0.22533170878887177,0.11468502879142761,-0.034591902047395706,0.042423147708177567,-0.20990362763404846,0.010720368474721909,-0.02362128160893917,-0.0754750519990921,0.14954866468906403,0.10790030658245087,0.023795345798134804,-0.08826030045747757,-0.20142047107219696,-0.04873758181929588,0.22347663342952728,0.1337628960609436,-0.05497065186500549,0.07324613630771637,-0.17937466502189636,0.16530326008796692,-0.06647660583257675,0.20756325125694275,0.25116947293281555,-0.2723282277584076,-0.257501482963562,-0.17790387570858002,0.16264615952968597,-0.14112329483032227,-0.13979361951351166,0.03318122401833534,-0.20235131680965424,0.12125368416309357,0.05147504061460495,0.14124149084091187,0.18176940083503723,0.12796783447265625,-0.1642506867647171,0.18509389460086823,0.15739446878433228,-0.020899787545204163,0.000865427777171135,-0.002364445012062788,-0.08700307458639145,0.16072961688041687,0.1574506014585495,0.0707324892282486,-0.13173991441726685,-0.08941680938005447,0.07250971347093582,0.20236721634864807,0.1355116218328476,0.10204486548900604,-0.12859612703323364,-0.10237687826156616,-0.20060160756111145,0.20760439336299896,0.04731956869363785,0.2121228128671646,0.19534912705421448,0.12803375720977783,0.13293687999248505,0.05563449487090111,-0.11014940589666367,0.10725104808807373,0.03701315075159073,0.21677982807159424,0.07158147543668747,0.07067042589187622,0.2381531149148941,0.20671072602272034,0.042521730065345764,-0.109782874584198,0.10563203692436218,0.07912446558475494,0.08109062165021896,0.16439363360404968,0.1124291867017746,0.1813589632511139,-0.2067422866821289,0.2060629278421402,-0.024391088634729385,0.07490767538547516,-0.18392324447631836,-0.10964888334274292,-0.21690359711647034,0.1615821123123169,0.010062838904559612,-0.08483754098415375,-0.19532856345176697,-0.03854445740580559,-0.008821295574307442,-0.10310809314250946,0.18131758272647858,0.26606202125549316,0.021961038932204247,0.12496692687273026,-0.024761782959103584,-0.10441851615905762,0.1189761832356453,0.12245174497365952,-0.014155547134578228,-0.1420477330684662,0.02597324177622795,0.21723811328411102,-0.12486273050308228,-0.18369005620479584,0.18428903818130493,0.242100328207016,-0.031423892825841904,0.20877663791179657,-0.08660168945789337,0.180485337972641,-0.14646141231060028,-0.11989572644233704,-0.20049256086349487,0.13850244879722595,-0.250248521566391,-0.16032616794109344,0.2013990879058838,0.047975219786167145,0.030229469761252403,0.004646382760256529,0.19513660669326782,0.13618698716163635,0.11877769976854324,0.20839619636535645,0.17187543213367462,-0.16078591346740723,0.10526913404464722,0.15064148604869843,0.1026969775557518,-0.1997215747833252,-0.06023583188652992,-0.09596709161996841,0.24271108210086823,-0.13250543177127838,0.06754353642463684,0.10552523285150528,0.21672432124614716,0.07173828035593033,0.14475958049297333,-0.24349381029605865,-0.08302971720695496,-0.0072073000483214855,-0.040025368332862854,-0.0882183313369751,0.20042800903320312,0.06547882407903671,0.14819678664207458,-0.20380011200904846,0.16794711351394653,0.1520044207572937,-0.19810503721237183,-0.11407796293497086,0.2163357138633728,-0.0778135359287262,0.0390506312251091,-0.1836901158094406,0.06406388431787491,0.2377946972846985,0.013676287606358528,0.02369590289890766,0.0314202755689621,0.11188812553882599,-0.11013949662446976,-0.1552066057920456,-0.11654049903154373,0.20458665490150452,-0.22088460624217987,-0.13555903732776642,0.2546200454235077,-0.07475153356790543,0.10409384965896606,-0.1764180064201355,-0.02739625796675682,0.035736020654439926,-0.03226338326931,0.06737273931503296,0.1728709489107132,0.28389647603034973,0.0626116544008255,0.2235497683286667,0.08720028400421143,-0.06839106231927872,-0.20093800127506256,-0.2018631100654602,-0.06610254943370819,-0.03961014375090599,0.06864216923713684,0.2349640280008316,-0.22565409541130066,-0.040505897253751755,-0.023223135620355606,-0.20573830604553223,0.12499697506427765,-0.011460773646831512,-0.13522423803806305,-0.2518354654312134,0.19321876764297485,-0.084568090736866,-0.1907515823841095,-0.22423185408115387,0.03931932523846626,0.04581816866993904,0.08130314201116562,-0.0961480662226677,-0.08328568935394287,0.1970800906419754,0.09717722237110138,0.0416225790977478,-0.1669561117887497,0.07300259172916412,0.0024212300777435303,-0.06136859953403473,-0.18858124315738678,-0.13153818249702454,-0.09003288298845291,0.1197623461484909,0.08864060789346695,0.09187430888414383,-0.2517050504684448,-0.017606478184461594,-0.1178974136710167,-0.23164013028144836,-0.23170258104801178,-0.0959734320640564,0.05181451514363289,-0.06421451270580292,0.08722051233053207,0.09270304441452026,-0.19009119272232056,0.154046893119812,-0.24993203580379486,-0.035764582455158234,0.1902378648519516,0.020419083535671234,-0.04659712314605713,0.1315271258354187,0.047527413815259933,-0.0070773581974208355,0.0200957041233778,-0.13162492215633392,-0.04679713025689125,-0.0759970098733902,-0.07142981141805649,-0.2015056610107422,0.07222728431224823,-0.0945071280002594,0.11497440934181213,-0.14737765491008759,-0.1938048005104065,0.08863047510385513,-0.1698303073644638,0.23813249170780182,0.044997863471508026,0.1611551195383072,0.13869942724704742,0.02514774166047573,-0.16548198461532593,0.25753286480903625,-0.10241800546646118,0.0069501460529863834,0.15913960337638855,0.12445738911628723,0.23649905622005463,-0.17935673892498016,-0.04834192991256714,0.2631489932537079,-0.12843571603298187,-0.011090991087257862,0.15795782208442688,0.1927177608013153,-0.12664029002189636,-0.010971968062222004,0.21045266091823578,-0.16635949909687042,0.05478568747639656,0.04264947772026062,-0.17162714898586273,0.22824957966804504,-0.1466808021068573,-0.09101458638906479,0.0032830003183335066,-0.006389053072780371,-0.16701242327690125,-0.174861341714859,-0.13612814247608185,-0.0031948161777108908,0.015330860391259193,0.1360115110874176,0.12064111977815628,-0.012693880125880241,-0.1344245970249176,-0.20947401225566864,-0.25143563747406006,0.01408333983272314,0.1665789633989334,-0.2531088888645172,0.10237478464841843,0.11075884848833084,-0.1677558571100235,-0.1431490033864975,-0.0050276597030460835,0.08292558789253235,-0.23065754771232605,-0.1933773159980774,0.06615973263978958,-0.18117141723632812,-0.006699328310787678,-0.03664340451359749,0.11574336141347885,0.12773017585277557,-0.11108100414276123,0.20323096215724945,0.1623314470052719,0.05729193240404129,0.2526634931564331,-0.0019300389103591442,-0.20639531314373016,0.1582518070936203,-0.1826062947511673,0.17811839282512665,-0.0063072694465518,-0.05766876041889191,0.1496196985244751,0.2281232476234436,0.020060529932379723,-0.1979188621044159,-0.02156912349164486,0.05543743073940277,0.027871355414390564,0.039989836513996124,-0.20467278361320496,0.12104268372058868,0.09468557685613632,-0.1507090926170349,-0.1567274034023285,0.17664800584316254,-0.19326186180114746,0.11439777165651321,0.08337850123643875,0.16495396196842194,-0.07907769829034805,-0.10366816073656082,0.18548046052455902,0.16868391633033752,-0.08567947149276733,-0.2198176383972168,-0.08853362500667572,-0.1804225742816925,-0.03941730782389641,-0.16269555687904358,0.2487555593252182,-0.08944647014141083,-0.11971455067396164,0.1930064857006073,-0.06800101697444916,-0.08671288937330246,-0.08673778176307678,0.21499423682689667,-0.17584334313869476,0.1667371541261673,0.022182758897542953,0.11660663038492203,0.1518986076116562,-0.214810311794281,0.0033353695180267096,-0.10999663919210434,0.1182970330119133,0.16673427820205688,-0.2467314451932907,0.22744736075401306,-0.16630254685878754,0.05531376227736473,0.08966810256242752,-0.034206636250019073,-0.17068436741828918,0.1269529163837433,0.21375752985477448,0.18811360001564026,0.21314464509487152,0.2600419521331787,0.022973081097006798,-0.07413908839225769,0.17149905860424042,0.19803373515605927,0.22049018740653992,-0.07349181175231934,0.0766117200255394,-0.041537798941135406,0.1806015819311142,0.20939645171165466,-0.0685538500547409,-0.026600470766425133,0.06934239715337753,0.1538505107164383,0.15763825178146362,0.22992360591888428,0.12051241099834442,-0.07117379456758499,0.15992984175682068,0.12418586760759354,0.15261156857013702,0.18261252343654633,0.2059372216463089,-0.19123806059360504,0.2143099009990692,0.2309260070323944,0.1842862069606781,0.20466099679470062,-0.06732407957315445,-0.14640840888023376,-0.1271347999572754,0.2051129788160324,0.02937483973801136,-0.08198373764753342,-0.1880229264497757,0.11064110696315765,-0.024642661213874817,-0.2095051109790802,0.01599714532494545,0.16977345943450928,0.10373203456401825,0.16185913980007172,-0.2054286152124405,0.11386370658874512,-0.1835143119096756,-0.1509043425321579,0.20481908321380615,-0.008725750260055065,-0.20292708277702332,-0.10716252028942108,-0.07282975316047668,-0.13158151507377625,-0.14632295072078705,-0.1214018315076828,0.2978762090206146,-0.04973214864730835,0.11403672397136688,0.19179433584213257,-0.22598734498023987,0.13517235219478607,0.12356922775506973,-0.16326487064361572,0.02038171887397766,-0.008590128272771835,-0.1892743557691574,-0.24623075127601624,0.17250236868858337,0.13439017534255981,0.14685817062854767,-0.1448933482170105,-0.19581229984760284,0.053020644932985306,0.2083597332239151,0.20113994181156158,0.029609017074108124,-0.14007370173931122,0.026174582540988922,-0.1912538707256317,0.09380828589200974,0.10542349517345428,0.194936603307724,0.2047145515680313,-0.04239124804735184,-0.09349796175956726,0.22802159190177917,-0.0012290353188291192,0.20104435086250305,-0.07313936203718185,-0.09990613907575607,-0.09929283708333969,-0.03586786240339279,-0.04714539274573326,0.24820053577423096,0.033200010657310486,0.12279058992862701,-0.03935043886303902,-0.21491892635822296,0.13137909770011902,0.20833398401737213,-0.22304867208003998,-0.22743041813373566,0.16327917575836182,-0.21920530498027802,0.12671531736850739,0.08911265432834625,0.08016565442085266,0.03392646461725235,0.1559707373380661,-0.005520349368453026,-0.056153882294893265,-0.1342514157295227,0.11603892594575882,-0.06840146332979202,-0.12361940741539001,0.24166364967823029,-0.18045364320278168,-0.27222928404808044,0.1599920243024826,0.15885473787784576,0.24765171110630035,-0.07396736741065979,0.18965530395507812,0.029808029532432556,0.14922314882278442,0.11061014235019684,0.17399632930755615,-0.16597580909729004,9.827178291743621e-05,-0.04752727970480919,0.13138987123966217,0.10333709418773651,0.10075356811285019,0.02967534214258194,0.11684628576040268,-0.07360852509737015,0.02641933225095272,0.21315689384937286,0.03540777042508125,-0.10298684239387512,-0.0006136231822893023,0.2819245457649231,0.08767128735780716,0.2932524085044861,0.24691809713840485,-0.011755548417568207,0.02774118073284626,-0.2828744947910309,-0.006977497134357691,-0.210459902882576,0.05429340898990631,0.2191809117794037,-0.06902110576629639,0.04319852590560913,0.04370405152440071,-0.1569664180278778,0.18815162777900696,-0.13231337070465088,0.18779711425304413,-0.26548123359680176,0.09871170669794083,0.19384494423866272,-0.11126033961772919,0.2413710653781891,0.2144233137369156,0.00782153569161892,0.004341506864875555,-0.06538403034210205,-0.04041166231036186,0.12406805902719498,0.0053562140092253685,0.21753141283988953,0.24053339660167694,0.0435880646109581,0.2953726649284363,0.07969526201486588,-0.00578865734860301,0.056681063026189804,-0.009039160795509815,-0.12125691026449203,0.08303802460432053,0.04976280778646469,0.11377790570259094,0.1683902144432068,0.02289857715368271,-0.04015783965587616,-0.11909190565347672,0.19947557151317596,-0.17762187123298645,-0.025274964049458504,0.07378006726503372,-0.1478680819272995,0.19313134253025055,0.06746000796556473,-0.2054925262928009,0.2622993588447571,0.05319657921791077,0.034766893833875656,0.15150155127048492,-0.1975015103816986,0.1422591209411621,0.0047108493745327,0.14931060373783112,-0.01462038978934288,0.18912173807621002,0.24496181309223175,0.04952508211135864,-0.2269219607114792,0.046904705464839935,0.23760679364204407,0.0668792724609375,-0.19544896483421326,-0.11966041475534439,0.1269940286874771,-0.17941877245903015,-0.14165954291820526,0.191109299659729,-0.17710502445697784,0.04229997098445892,-0.06259822845458984,0.17346882820129395,0.13072222471237183,0.12328416109085083,-0.07697467505931854,-0.20272791385650635,-0.03284361958503723,-0.22228142619132996,0.11843996495008469,0.2802232801914215,-0.09754080325365067,0.1810898631811142,0.11592134833335876,0.1547321230173111,-0.12206660211086273,-0.055535588413476944,0.09376206994056702,-0.08861424028873444,0.2226075679063797,-0.07825645804405212,0.07509596645832062,-0.18990226089954376,0.2830623984336853,0.023524025455117226,0.1993056833744049,0.19933544099330902,0.05598341301083565,0.1546235829591751,-0.09354620426893234,-0.14708390831947327,0.018911926075816154,0.20263606309890747,0.23753494024276733,0.10697876662015915,0.10667736083269119,-0.19389021396636963,0.20195944607257843,0.24800358712673187,0.015061796642839909,-0.137991800904274,0.19095668196678162,0.11690904200077057,-0.011286547407507896,0.16256341338157654,-0.06528578698635101,-0.17011184990406036,-0.09783818572759628,0.09784600883722305,0.08665861189365387,0.01092720590531826,-0.17442139983177185,-0.18904133141040802,0.1909627914428711,-0.16614390909671783,-0.112929567694664,0.07441996783018112,0.12078160792589188,-0.16168732941150665,0.08623416721820831,0.07341144233942032,-0.17940762639045715,-0.029410794377326965,-0.02193300612270832,-0.2502792775630951,0.09834183007478714,0.07393328100442886,0.16016390919685364,0.022123847156763077,0.08419270068407059,-0.030960291624069214,0.008186375722289085,-0.21522656083106995,-0.0334930494427681,-0.03134211525321007,0.045043814927339554,0.06094057485461235,0.1776238977909088,-0.11354056745767593,-0.07962314784526825,-0.1011771559715271,0.23303483426570892,-0.14917036890983582,-0.06643534451723099,0.012064785696566105,0.08208625018596649,0.12042193114757538,-0.0249556265771389,-0.058020882308483124,0.10451534390449524,-0.24349939823150635,-0.14991022646427155,0.14453186094760895,0.018887532874941826,0.00027453474467620254,0.10765790939331055,0.09243550151586533,-0.23759117722511292,-0.059916213154792786,0.1602502018213272,-0.15191224217414856,-0.12389500439167023,0.16539086401462555,-0.03298972547054291,-0.19614821672439575,-0.033496078103780746,0.20069395005702972,-0.2094222605228424,-0.10848315805196762,0.11431590467691422,0.2267857789993286,0.053045790642499924,0.20912669599056244,-0.22985653579235077,0.07580786943435669,-0.07809193432331085,-0.1322857141494751,0.06857796758413315,0.08694189041852951,-0.13468588888645172,0.14336596429347992,0.16647221148014069,0.14798033237457275,-0.20635373890399933,-0.18027187883853912,-0.05483371391892433,0.08751200884580612,-0.1567821055650711,-0.1912674903869629,0.22100108861923218,0.22264501452445984,0.07978644967079163,-0.16829447448253632,-0.004536919761449099,0.08773020654916763,0.13802044093608856,0.22449998557567596,0.1735856980085373,-0.19248594343662262,-0.054946526885032654,-0.11260667443275452,-0.044061169028282166,0.1600612998008728,0.06506271660327911,0.14635461568832397,0.09107514470815659,-0.1902202069759369,-0.16171082854270935,0.019355256110429764,0.026306502521038055,-0.09105445444583893,-0.1273224949836731,-0.10525649040937424,-0.1544969081878662,0.1975344568490982,-0.18289822340011597,-0.19702310860157013,-0.1673438996076584,-0.050582099705934525,-0.05024459958076477,0.21249501407146454,0.03775985911488533,-0.1707107126712799,-0.21767646074295044,0.0953337624669075,0.05128886178135872,0.2114243507385254,-0.03607343137264252,-0.028220998123288155,0.040540602058172226,0.06432445347309113,0.04563641920685768,0.21075700223445892,-0.04396304115653038,-0.17271265387535095,0.18714341521263123,0.14341044425964355,0.15899193286895752,0.031850799918174744,-0.0027113747783005238,0.24427306652069092,0.0432095043361187,0.046547867357730865,0.06086353957653046,-0.07848179340362549,0.146942138671875,-0.13243670761585236,0.1192382350564003,0.2291833609342575,0.055516015738248825,0.1369612067937851,0.060903120785951614,0.05063887685537338,-0.1603882759809494,-0.1281108558177948,0.08222047984600067,-0.17426441609859467,-0.22596874833106995,0.07453827559947968,-0.16672421991825104,0.03179432451725006,0.003868715139105916,-0.13265883922576904,-0.044319480657577515,-0.17515814304351807,-0.10964742302894592,0.1651363968849182,-0.004702336620539427,-0.19457487761974335,0.14354698359966278,-0.19463737308979034,0.19275681674480438,0.038438353687524796,0.19997549057006836,-0.10897370427846909,-0.0747889056801796,0.01404122356325388,0.04079744219779968,-0.12276776880025864,0.18458761274814606,-0.13358180224895477,0.1369275599718094,-0.0029162985738366842,0.18927620351314545,0.11604411154985428,-0.1829185038805008,0.1523464322090149,0.16258205473423004,0.2635487914085388,-0.006490868981927633,0.06851517409086227,0.1910559982061386,-0.23424291610717773,0.06262215971946716,0.1683260202407837,0.027559451758861542,-0.01384806539863348,-0.13488425314426422,0.09404510259628296,-0.02249208092689514,0.19136826694011688,-0.05661141499876976,0.16697148978710175,0.08510275185108185,0.10246813297271729,0.26780804991722107,-0.07361719012260437,0.05203390493988991,0.004432643763720989,0.16252565383911133,0.18204784393310547,-0.23821298778057098,0.02652299404144287,0.09676554799079895,0.24120724201202393,-0.1923953741788864,0.2904217839241028,-0.2160656899213791,0.0879172533750534,0.27060529589653015,-0.18296214938163757,-0.09564340114593506,0.12341438978910446,-0.2292696088552475,-0.18810157477855682,-0.09316711872816086,0.2343379706144333,-0.1325899064540863,-0.10611630976200104,0.023295992985367775,0.2647884488105774,0.19111713767051697,-0.09228838980197906,0.0910213515162468,0.09954486042261124,-0.062319427728652954,0.1508958339691162,-0.011337053962051868,-0.16073386371135712,-0.1335367113351822,0.2886490523815155,0.04559465870261192,-0.2028825730085373,-0.14057457447052002,-0.12178666889667511,-0.0030748958233743906,-0.21694327890872955,-0.06630570441484451,0.1845061182975769,-0.08977722376585007,0.03567873314023018,0.23381826281547546,0.025420062243938446,-0.0618133544921875,-0.12612895667552948,0.08746601641178131,0.14761348068714142,0.13499198853969574,-0.06377188116312027,0.11140438169240952,-0.14782848954200745,0.20354634523391724,-0.10079296678304672,0.03356738016009331,0.2972548007965088,-0.0772557482123375,-0.12674976885318756,0.12488177418708801,-0.04870298504829407,-0.13106949627399445,0.08916736394166946,0.0569930374622345,-0.014689741656184196,0.20380230247974396,-0.11201967298984528,-0.2235100120306015,-0.14759474992752075,-0.1438959240913391,0.1215345710515976,0.10419922322034836,-0.1521540880203247,0.13647450506687164,-0.12014591693878174,-0.15266218781471252,0.14255376160144806,-0.051564641296863556,0.050209369510412216,0.26728880405426025,-0.10638057440519333,-0.17856071889400482,0.00428350642323494,0.00014860012743156403,0.14523541927337646,-0.23269438743591309,-0.208778515458107,-0.09297589957714081,-0.12441854178905487,-0.11887756735086441,0.11783136427402496,0.2299226075410843,0.10760997235774994,0.1693205088376999,0.16876858472824097,0.1039375439286232,-0.08128175884485245,0.10482816398143768,-0.21146199107170105,-0.012164121493697166,0.22128289937973022,-0.11568518728017807,0.055622320622205734,0.06938859075307846,0.17094197869300842,0.1197778731584549,-0.028523169457912445,0.09576542675495148,-0.003249750705435872,-0.008550556376576424,0.14278891682624817,-0.007323788944631815,0.033240482211112976,0.191120907664299,0.23778226971626282,-0.018805798143148422,-0.05209944397211075,-0.01325279287993908,0.0983516126871109,0.2049163430929184,-0.18133139610290527,0.05538752302527428,0.057051658630371094,-0.14298278093338013,0.05511104688048363,-0.03211246430873871,-0.07330546528100967,0.03313756734132767,-0.06156118959188461,0.0549120232462883,0.03482450172305107,0.15410363674163818,-0.05161496251821518,-0.10097237676382065,0.2309148907661438,-0.06251344829797745,0.01638822630047798,0.1921822428703308,-0.13664688169956207,-0.22811758518218994,0.18654239177703857,0.14133401215076447,-0.1098780706524849,-0.0024473117664456367,-0.11280415207147598,0.1466696560382843,0.10828045755624771,0.09940139204263687,0.19475749135017395,-0.03205990046262741,-0.06978464871644974,0.21286587417125702,-0.18052862584590912,0.061327867209911346,-0.12107403576374054,0.11912959069013596,0.1299389749765396,-0.18759770691394806,0.1013249009847641,-0.08144692331552505,-0.13397911190986633,0.1274886578321457,0.26265671849250793,-0.02400337904691696,0.002644645282998681,0.002367886947467923,-0.1631321758031845,-0.18698301911354065,0.2005963921546936,0.26467272639274597,-0.04575347155332565,0.23252500593662262,0.19741079211235046,-0.028026191517710686,0.040287457406520844,0.016352873295545578,-0.13076980412006378,-0.0487823560833931,0.10745584219694138,-0.01360819861292839,-0.10540953278541565,0.18938860297203064,-0.09942947328090668,0.16068889200687408,0.22678060829639435,-0.14520904421806335,0.16649489104747772,-0.06865108758211136,-0.2346886694431305,-0.011199585162103176,-0.12151753157377243,-0.046211209148168564,-0.00865754671394825,0.04713558033108711,0.20250365138053894,0.019307712092995644,0.0698409155011177,-0.26876819133758545,0.1507268249988556,0.0732613131403923,0.04053645208477974,0.0036909570917487144,-0.014115245081484318,-0.17439177632331848,0.11874674260616302,0.11811164021492004,-0.15596994757652283,-0.18699684739112854,0.10986964404582977,0.0841141790151596,-0.10698848217725754,0.18302245438098907,-0.17009475827217102,0.0840485617518425,0.01498804334551096,0.18102216720581055,-0.12126582115888596,-0.010203240439295769,0.15920983254909515,0.06078261137008667,-0.09224192798137665,-0.12028572708368301,0.14172665774822235,0.2766680419445038,-0.07664528489112854,-0.02709750272333622,0.10900139063596725,-0.05192161723971367,0.07736987620592117,0.24428388476371765,0.1422729790210724,0.07875752449035645,0.025513743981719017,0.029641147702932358,0.1641283631324768,0.0636046901345253,0.11180002242326736,-0.032225996255874634,-0.032133035361766815,0.15726222097873688,0.15536122024059296,-0.14889374375343323,0.04671911522746086,-0.04712206870317459,-0.11226696521043777,0.20735549926757812,0.21453635394573212,-0.07480205595493317,0.19274041056632996,0.09250698983669281,0.06131916493177414,0.17173336446285248,0.04048747196793556,-0.040593866258859634,0.03544016554951668,-0.1966923177242279,-0.2333805114030838,-0.2123916894197464,-0.23274117708206177,0.031652238219976425,-0.11598129570484161,-0.2892615497112274,0.12879011034965515,0.2275467813014984,0.15423253178596497,-0.20109006762504578,0.06893962621688843,0.07675882428884506,0.12880240380764008,0.10473509132862091,0.11992581188678741,0.061121780425310135,-0.24849481880664825,-0.044530220329761505,-0.16068369150161743,-0.14767241477966309,-0.1401006281375885,-0.17789123952388763,-0.12286977469921112,0.2080332189798355,-0.035496775060892105,-0.07784361392259598,0.09850765764713287,0.02903352491557598,-0.13058578968048096,0.03733601048588753,-0.19476772844791412,-0.09758006036281586,-0.094556525349617,-0.14118941128253937,-0.0636804923415184,0.28533628582954407,0.10939565300941467,-0.060622140765190125,0.1352059543132782,-0.07892358303070068,0.019565792754292488,-0.039798274636268616,0.21531613171100616,-0.13541878759860992,-0.1955876350402832,0.18160982429981232,0.1479269117116928,0.15538787841796875,0.19319415092468262,0.008110925555229187,0.16162879765033722,0.11668035387992859,-0.0442168191075325,-0.057584647089242935,-0.23853793740272522,0.10686333477497101,0.11333240568637848,0.016511201858520508,0.05438532307744026,0.11735562235116959,-0.0927506685256958,0.16076016426086426,-0.10699435323476791,0.1677761971950531,0.16542473435401917,-0.24255309998989105};
const weight_t B2[N_HIDDEN_2] = {
    -0.015225528739392757,0.07869862765073776,-0.004067111294716597,0.06982546299695969,-0.002368226647377014,-0.008986382745206356,0.0076966253109276295,0.009390794672071934,0.00597696378827095,0.04174869880080223,-0.02033820189535618,0.014769685454666615,-0.002908160211518407,0.05212307721376419,0.04979197308421135,0.03694463521242142,-0.011857612058520317,0.05706540122628212,0.05023837462067604,0.05593365803360939,-0.0037363290321081877,-0.018013885244727135,-0.0041216835379600525,0.0019971979781985283,0.037815116345882416,-0.009458575397729874,0.04223513603210449,-0.022375090047717094,0.03547633811831474,-0.020691128447651863,-0.02819254621863365,-0.03501620143651962,0.04785225912928581,-0.010654149577021599,0.034952688962221146,-0.020925981923937798,0.010130840353667736,-0.0061912196688354015,0.0077125332318246365,0.025545883923768997,0.04855203628540039,-0.019170451909303665,0.03936593979597092,-0.028610706329345703,-0.038642775267362595,-0.011459317058324814,0.06833581626415253,0.04966374859213829,0.03822290152311325,0.03403234854340553};
const weight_t W3[N_HIDDEN_2 * N_OUTPUTS] = {
    -0.1306561976671219,0.14971819519996643,-0.02522161416709423,-0.18863995373249054,0.22393037378787994,-0.07357640564441681,-0.22020749747753143,0.048165980726480484,-0.02456897869706154,-0.13554295897483826,0.2989233136177063,-0.007990804500877857,-0.09653174132108688,0.12387698888778687,-0.26146161556243896,0.12161552160978317,-0.24972979724407196,-0.20223921537399292,-0.18333201110363007,-0.0667019933462143,-0.06772904098033905,0.1511317491531372,-0.2628270983695984,-0.3409815728664398,-0.10159893333911896,0.035854462534189224,-0.18216626346111298,0.20823067426681519,-0.08997233957052231,-0.2937803268432617,0.08915280550718307,-0.19706206023693085,-0.10041819512844086,-0.17733274400234222,-0.06491106748580933,0.20716062188148499,0.10453422367572784,-0.12242310494184494,0.36006349325180054,0.055585410445928574,0.10436204075813293,0.21759507060050964,0.04633656144142151,-0.3864870071411133,0.045541081577539444,0.24160081148147583,0.12000378966331482,-0.3015632629394531,-0.29418885707855225,-0.0008180685108527541,0.21967968344688416,-0.224349707365036,-0.24585455656051636,-0.3300792872905731,0.036505576223134995,0.20390267670154572,-0.24370160698890686,-0.3523346781730652,-0.1269960254430771,0.332135945558548,0.26299092173576355,-0.08133216202259064,0.19863955676555634,0.13401290774345398,0.2328081876039505,0.1405452936887741,-0.27674269676208496,0.04251747950911522,0.10096371173858643,-0.1743498593568802,0.04441792145371437,-0.12078654766082764,0.17385955154895782,-0.07146730273962021,-0.05762216076254845,0.1950043886899948,0.1074163019657135,-0.170065775513649,-0.18212629854679108,0.09115144610404968,-0.05914019048213959,0.19706368446350098,-0.2130330204963684,0.1411224603652954,-0.04755662754178047,0.13100700080394745,-0.026388484984636307,-0.30202516913414,0.22092068195343018,0.20225223898887634,0.04964146390557289,-0.2777252495288849,0.3190043270587921,0.2030763179063797,-0.18710952997207642,0.14592617750167847,-0.2956005036830902,-0.11918941140174866,0.2399052381515503,-0.18604804575443268,-0.17209069430828094,0.24328023195266724,-0.022507792338728905,0.28330710530281067,0.07861772179603577,-0.17155957221984863,-0.07035166770219803,0.2845497131347656,-0.2891964912414551,0.28165754675865173,-0.009274938143789768,0.032776158303022385,-0.06816960126161575,0.052367616444826126,0.14222069084644318,0.11079983413219452,-0.29727599024772644,-0.22190408408641815,0.30115219950675964,-0.2426222413778305,-0.08210132271051407,-0.052895646542310715,-0.1426604837179184,-0.2620457112789154,-0.07902991026639938,0.2649002969264984,0.06950324773788452,-0.07014771550893784,-0.25237536430358887,-0.36309126019477844,-0.016834966838359833,-0.02914147637784481,-0.2656348645687103,0.31368306279182434,-0.07445567846298218,-0.209411159157753,-0.014463754370808601,0.338850736618042,0.06435394287109375,0.25773340463638306,-0.25775185227394104,0.07670591026544571,-0.04929794371128082,0.15960435569286346,-0.11623368412256241,-0.03396223485469818,-0.19667190313339233,0.002582052256911993,-0.10502981394529343,0.2517228126525879,-0.24721775949001312,-0.25344598293304443,0.1231653243303299,0.02085135132074356,-0.33563563227653503,-0.13441318273544312,0.1073850691318512,0.07189831882715225,-0.0725892186164856,0.13685601949691772,-0.0809331163764,0.11874601244926453,0.23826146125793457,0.21569271385669708,0.0872008427977562,0.15621818602085114,0.267769455909729,-0.24600127339363098,0.3233584463596344,-0.19050408899784088,-0.35879939794540405,-0.31210389733314514,-0.23873694241046906,-0.2810242474079132,0.09704709053039551,-0.14574816823005676,0.0737796276807785,0.2673174738883972,0.21769171953201294,-0.30404531955718994,-0.07264073193073273,-0.29285958409309387,0.21126998960971832,-0.3736594617366791,-0.10988304764032364,-0.11625958979129791,-0.044243935495615005,0.26453760266304016,0.1047464981675148,-0.1972072422504425,-0.11477309465408325,0.2969799339771271,-0.07471220195293427,0.05022914335131645,0.3052523136138916,-0.027074623852968216,-0.39404886960983276,-0.14324535429477692,0.02592071332037449,-0.10243197530508041};
const weight_t B3[N_OUTPUTS] = {
    0.03791613131761551,-0.04197229817509651,-0.014056525193154812,0.02055545337498188};


data_t relu(data_t x) {
    return std::max(x, (data_t)0.0);
}

data_t sigmoid(data_t x) {
    return 1.0 / (1.0 + std::exp(-x));
}

void softmax(data_t input[N_OUTPUTS], data_t output[N_OUTPUTS]) {
    data_t max_val = input[0];
    for (int i = 1; i < N_OUTPUTS; i++) {
        if (input[i] > max_val) {
            max_val = input[i];
        }
    }

    data_t sum = 0.0;
    for (int i = 0; i < N_OUTPUTS; i++) {
        output[i] = std::exp(input[i] - max_val);
        sum += output[i];
    }

    for (int i = 0; i < N_OUTPUTS; i++) {
        output[i] /= sum;
    }
}

void pca_mlp(hls::stream<AXIS_wLAST>& S_AXIS, hls::stream<AXIS_wLAST>& M_AXIS){
	#pragma HLS INTERFACE ap_ctrl_none port=return
	#pragma HLS INTERFACE axis port=S_AXIS
	#pragma HLS INTERFACE axis port=M_AXIS

    int word_cnt;
	AXIS_wLAST input_data, output_data;


	data_t input[N_INPUTS];
	// Read inputs from input stream
	for(int word_cnt = 0; word_cnt < NUMBER_OF_INPUT_WORDS; word_cnt++){
		input_data = S_AXIS.read();
		input[word_cnt] = input_data.data;
		printf("word_cnt, input_data.data: %d %f ...\n", word_cnt, input_data.data);
	}


    // Compute the output of the hidden layer
	data_t hidden1[N_HIDDEN_1];
	for (int i = 0; i < N_HIDDEN_1; i++) {
	     hidden1[i] = B1[i];
	     for (int j = 0; j < N_INPUTS; j++) {
	          hidden1[i] += input[j] * W1[j * N_HIDDEN_1 + i];
	        }
	        hidden1[i] = relu(hidden1[i]);
	    }

	    // Compute the output of the second hidden layer
	    data_t hidden2[N_HIDDEN_2];
	    for (int i = 0; i < N_HIDDEN_2; i++) {
	        hidden2[i] = B2[i];
	        for (int j = 0; j < N_HIDDEN_1; j++) {
	            hidden2[i] += hidden1[j] * W2[j * N_HIDDEN_2 + i];
	        }
	        hidden2[i] = relu(hidden2[i]);
	    }

	    // Compute the output of the output layer
	    data_t output_raw[N_OUTPUTS];
	    data_t output[N_OUTPUTS];
	    for (int i = 0; i < N_OUTPUTS; i++) {
	        output_raw[i] = B3[i];
	        for (int j = 0; j < N_HIDDEN_2; j++) {
	            output_raw[i] += hidden2[j] * W3[j * N_OUTPUTS + i];
	        }
	    }
	    softmax(output_raw, output);

    // Set the output data to the softmax array
    for(int i = 0; i < N_OUTPUTS; i++){
        output_data.data = output[i];
        output_data.last = (i == N_OUTPUTS-1) ? 1 : 0;
        if(word_cnt==NUMBER_OF_INPUT_WORDS-1)
        			{
        				write_input.last = 1;
        				// S_AXIS_TLAST is asserted for the last word.
        				// Actually, doesn't matter since we are not making using of S_AXIS_TLAST.
        			}
        M_AXIS.write(output_data);
    }
}
